{"learner":{"attributes":{"best_iteration":"40","best_score":"2.563957511475104","scikit_learn":"{\"_estimator_type\": \"regressor\"}"},"feature_names":["B01","B02","B03","B08","B09","B11","B12","B8A"],"feature_types":["float","float","float","float","float","float","float","float"],"gradient_booster":{"model":{"gbtree_model_param":{"num_parallel_tree":"1","num_trees":"51"},"iteration_indptr":[0,1,2,3,4,5,6,7,8,9,10,11,12,13,14,15,16,17,18,19,20,21,22,23,24,25,26,27,28,29,30,31,32,33,34,35,36,37,38,39,40,41,42,43,44,45,46,47,48,49,50,51],"tree_info":[0,0,0,0,0,0,0,0,0,0,0,0,0,0,0,0,0,0,0,0,0,0,0,0,0,0,0,0,0,0,0,0,0,0,0,0,0,0,0,0,0,0,0,0,0,0,0,0,0,0,0],"trees":[{"base_weights":[4.185703E-6,-3.5723176E0,1.1986902E0,-9.801646E0,-2.702048E0,4.4549042E-1,2.2556317E0,-3.1304004E0,-4.2576143E-1,-4.563816E0,-2.2378304E0,7.9121727E-1,-2.308026E0,2.8206992E0,-1.1746704E-1,1.1155243E-1,-4.8955345E0,-8.4522724E-1,-3.222144E0,1.3306694E0,-4.3364026E-2,-1.0764371E0,-1.2062565E0,4.522687E0,2.447117E0,5.12262E-1,-9.655096E-1,-6.3528023E0,-3.0562372E0,6.082512E-1,-2.3367214E0,-3.7077763E0,-6.340294E-1,7.793863E-1,2.082981E0,-4.1667566E-1,1.4245019E0,-1.7144742E0,2.873169E-1,4.6638107E0,3.3970642E-1,6.3610077E-1,2.8261046E0,7.0178695E-2,6.771607E-1,-1.2454461E0,1.9613647E-1,-2.0265749E0,-5.303513E-1,-1.0052776E0,-1.04809575E-1,-2.654297E-1,3.912216E-1,-8.1926364E-1,8.447571E-2,-1.2320487E0,-7.282471E-1,-3.6072955E-1,5.0171816E-1,4.582464E-1,-7.178503E-2,7.110703E-1,-3.2845688E-1,-6.1665833E-2,-6.9536865E-1,-5.621109E-2,5.780402E-1,-5.560215E-1,-9.04541E-2,-1.4521484E-1,2.8887329E-1,1.5068659E0,6.992592E-1,3.9855197E-1,-8.421479E-1,6.308447E-1,1.0041326E0,-1.46108E-1,3.1773376E-1,-5.8385015E-2,-6.1415595E-1,1.3206024E-1,-4.379883E-2],"categories":[],"categories_nodes":[],"categories_segments":[],"categories_sizes":[],"default_left":[0,0,0,0,0,0,0,0,0,0,0,0,0,0,0,0,0,0,0,0,0,0,0,0,0,0,0,0,0,0,0,0,0,0,0,0,0,0,0,0,0,0,0,0,0,0,0,0,0,0,0,0,0,0,0,0,0,0,0,0,0,0,0,0,0,0,0,0,0,0,0,0,0,0,0,0,0,0,0,0,0,0,0],"id":0,"left_children":[1,3,5,7,9,11,13,-1,-1,15,17,19,21,23,25,-1,27,29,31,33,35,37,-1,39,41,43,45,47,49,51,53,55,57,59,61,63,65,67,69,71,-1,73,75,77,-1,79,81,-1,-1,-1,-1,-1,-1,-1,-1,-1,-1,-1,-1,-1,-1,-1,-1,-1,-1,-1,-1,-1,-1,-1,-1,-1,-1,-1,-1,-1,-1,-1,-1,-1,-1,-1,-1],"loss_changes":[1.7214011E3,5.2105615E2,2.3861765E2,4.8866333E1,6.75708E1,1.7032388E2,1.6795154E2,0E0,0E0,2.9653595E1,9.871265E1,7.119194E1,3.7861824E1,5.315149E1,1.3845518E1,0E0,2.346991E1,7.079266E1,5.169467E1,3.8191284E1,3.511575E1,1.180423E1,0E0,2.8526611E0,5.6542297E1,1.1412725E1,3.8213367E0,2.819458E0,6.0084534E0,1.8814627E1,1.7281364E1,8.423157E0,1.2498751E1,4.3803406E1,3.9108826E1,1.9994492E1,1.0886362E1,1.2079067E0,3.0717492E0,1.6955872E0,0E0,4.1875458E1,1.934021E1,7.679326E0,0E0,7.1840134E0,3.147747E-1,0E0,0E0,0E0,0E0,0E0,0E0,0E0,0E0,0E0,0E0,0E0,0E0,0E0,0E0,0E0,0E0,0E0,0E0,0E0,0E0,0E0,0E0,0E0,0E0,0E0,0E0,0E0,0E0,0E0,0E0,0E0,0E0,0E0,0E0,0E0,0E0],"parents":[2147483647,0,0,1,1,2,2,3,3,4,4,5,5,6,6,9,9,10,10,11,11,12,12,13,13,14,14,16,16,17,17,18,18,19,19,20,20,21,21,23,23,24,24,25,25,26,26,27,27,28,28,29,29,30,30,31,31,32,32,33,33,34,34,35,35,36,36,37,37,38,38,39,39,41,41,42,42,43,43,45,45,46,46],"right_children":[2,4,6,8,10,12,14,-1,-1,16,18,20,22,24,26,-1,28,30,32,34,36,38,-1,40,42,44,46,48,50,52,54,56,58,60,62,64,66,68,70,72,-1,74,76,78,-1,80,82,-1,-1,-1,-1,-1,-1,-1,-1,-1,-1,-1,-1,-1,-1,-1,-1,-1,-1,-1,-1,-1,-1,-1,-1,-1,-1,-1,-1,-1,-1,-1,-1,-1,-1,-1,-1],"split_conditions":[3.132E3,2.114E3,3.993E3,1.379E3,2.467E3,1.739E3,2.328E3,-3.1304004E0,-4.2576143E-1,1.138E3,1.353E3,4.277E3,1.989E3,3.79E3,2.313E3,1.1155243E-1,1.674E3,4.386E3,4.143E3,3.634E3,1.606E3,4.68E3,-1.2062565E0,5.565E3,1.534E3,2.246E3,4.796E3,4.902E3,3.405E3,3.851E3,5.427E3,1.509E3,1.507E3,1.534E3,4.291E3,1.587E3,1.604E3,1.84E3,4.31E3,1.844E3,3.3970642E-1,2.478E3,4.384E3,5.81E3,6.771607E-1,3.927E3,3.188E3,-2.0265749E0,-5.303513E-1,-1.0052776E0,-1.04809575E-1,-2.654297E-1,3.912216E-1,-8.1926364E-1,8.447571E-2,-1.2320487E0,-7.282471E-1,-3.6072955E-1,5.0171816E-1,4.582464E-1,-7.178503E-2,7.110703E-1,-3.2845688E-1,-6.1665833E-2,-6.9536865E-1,-5.621109E-2,5.780402E-1,-5.560215E-1,-9.04541E-2,-1.4521484E-1,2.8887329E-1,1.5068659E0,6.992592E-1,3.9855197E-1,-8.421479E-1,6.308447E-1,1.0041326E0,-1.46108E-1,3.1773376E-1,-5.8385015E-2,-6.1415595E-1,1.3206024E-1,-4.379883E-2],"split_indices":[6,6,6,0,6,0,1,0,0,1,1,4,0,4,0,0,2,4,5,6,0,5,0,5,0,0,3,7,5,4,7,0,0,1,7,0,1,0,4,1,0,2,6,5,0,7,0,0,0,0,0,0,0,0,0,0,0,0,0,0,0,0,0,0,0,0,0,0,0,0,0,0,0,0,0,0,0,0,0,0,0,0,0],"split_type":[0,0,0,0,0,0,0,0,0,0,0,0,0,0,0,0,0,0,0,0,0,0,0,0,0,0,0,0,0,0,0,0,0,0,0,0,0,0,0,0,0,0,0,0,0,0,0,0,0,0,0,0,0,0,0,0,0,0,0,0,0,0,0,0,0,0,0,0,0,0,0,0,0,0,0,0,0,0,0,0,0,0,0],"sum_hessian":[4E2,1E2,3E2,1.1E1,8.9E1,1.76E2,1.24E2,1E1,1E0,1.6E1,7.3E1,1.57E2,1.9E1,1E2,2.4E1,1E0,1.5E1,3.1E1,4.2E1,9.5E1,6.2E1,1.2E1,7E0,1.6E1,8.4E1,1.4E1,1E1,7E0,8E0,1.6E1,1.5E1,3.5E1,7E0,5.6E1,3.9E1,5E1,1.2E1,8E0,4E0,1.5E1,1E0,1.5E1,6.9E1,1.2E1,2E0,8E0,2E0,6E0,1E0,7E0,1E0,5E0,1.1E1,1.3E1,2E0,2.5E1,1E1,6E0,1E0,3.2E1,2.4E1,3.6E1,3E0,4.6E1,4E0,3E0,9E0,7E0,1E0,2E0,2E0,1.2E1,3E0,1.3E1,2E0,3.1E1,3.8E1,8E0,4E0,4E0,4E0,1E0,1E0],"tree_param":{"num_deleted":"0","num_feature":"8","num_nodes":"83","size_leaf_vector":"1"}},{"base_weights":[-1.6736494E-2,-2.5950751E0,8.48476E-1,-2.8367615E0,-2.1392434E0,3.0520767E-1,1.6109561E0,-4.130456E0,-1.6584704E0,5.5723476E-1,-1.7010666E0,2.0114913E0,-7.1644284E-2,9.482117E-2,-4.410609E0,1.0450104E0,-1.76905E0,8.7583965E-1,-1.9114812E-1,-2.3108094E0,1.0680135E-1,3.3156362E0,1.7269976E0,-6.807556E-1,5.4297817E-1,-4.5354805E0,-3.618988E-1,-5.414836E-1,-2.2725508E0,4.0805766E-1,1.3987451E0,-1.4791168E0,1.440015E-1,-1.3673973E0,-2.9653702E0,-4.175415E-1,2.3109742E-1,3.9696453E0,2.2932231E0,4.175415E-1,2.0016305E0,4.9935913E-1,-1.084726E0,4.7874987E-1,6.7538455E-2,-1.4327376E0,-5.706604E-1,-6.7857516E-1,-5.6399103E-2,-7.4094963E-1,5.8267824E-2,2.7915955E-1,-1.6100839E-1,-1.8888094E-1,4.8837677E-1,-1.0418472E0,-3.8565937E-2,3.6080173E-1,-9.445725E-2,-4.8616794E-1,-1.2158204E-1,-9.6022606E-1,-1.976532E-1,-1.4276734E-1,-3.6373902E-2,1.2675682E0,2.8874817E-1,2.4679413E-1,8.67421E-1,2.8752464E-1,-6.7371523E-1,6.753722E-1,3.2730263E-1,3.3349457E-1,-2.258606E-2,-4.2039448E-1,-7.785416E-2,2.9524842E-1,-1.3976833E-1],"categories":[],"categories_nodes":[],"categories_segments":[],"categories_sizes":[],"default_left":[0,0,0,0,0,0,0,0,0,0,0,0,0,0,0,0,0,0,0,0,0,0,0,0,0,0,0,0,0,0,0,0,0,0,0,0,0,0,0,0,0,0,0,0,0,0,0,0,0,0,0,0,0,0,0,0,0,0,0,0,0,0,0,0,0,0,0,0,0,0,0,0,0,0,0,0,0,0,0],"id":1,"left_children":[1,3,5,-1,7,9,11,13,15,17,19,21,23,-1,25,-1,27,29,31,33,35,37,39,41,43,45,-1,47,49,51,53,55,57,59,61,63,-1,65,67,69,71,73,75,-1,77,-1,-1,-1,-1,-1,-1,-1,-1,-1,-1,-1,-1,-1,-1,-1,-1,-1,-1,-1,-1,-1,-1,-1,-1,-1,-1,-1,-1,-1,-1,-1,-1,-1,-1],"loss_changes":[8.96757E2,2.9563586E2,1.24191925E2,0E0,8.505261E1,9.0445366E1,8.438669E1,2.3816772E1,5.108026E1,3.78407E1,2.2293488E1,3.174701E1,9.728972E0,0E0,1.3308411E0,0E0,4.6979736E1,2.658046E1,2.0932781E1,5.207962E0,2.4091249E0,2.2640533E0,2.9731918E1,6.739176E0,6.3996153E0,1.0404053E0,0E0,1.417037E1,2.7245361E1,3.0115929E1,2.5197235E1,2.6479843E1,1.9324114E1,1.2918196E0,2.2345428E0,1.1454821E-2,0E0,2.850418E0,5.538418E0,2.5200127E1,1.3454895E1,1.491091E0,2.248869E0,0E0,5.3480835E0,0E0,0E0,0E0,0E0,0E0,0E0,0E0,0E0,0E0,0E0,0E0,0E0,0E0,0E0,0E0,0E0,0E0,0E0,0E0,0E0,0E0,0E0,0E0,0E0,0E0,0E0,0E0,0E0,0E0,0E0,0E0,0E0,0E0,0E0],"parents":[2147483647,0,0,1,1,2,2,4,4,5,5,6,6,7,7,8,8,9,9,10,10,11,11,12,12,14,14,16,16,17,17,18,18,19,19,20,20,21,21,22,22,23,23,24,24,25,25,27,27,28,28,29,29,30,30,31,31,32,32,33,33,34,34,35,35,37,37,38,38,39,39,40,40,41,41,42,42,44,44],"right_children":[2,4,6,-1,8,10,12,14,16,18,20,22,24,-1,26,-1,28,30,32,34,36,38,40,42,44,46,-1,48,50,52,54,56,58,60,62,64,-1,66,68,70,72,74,76,-1,78,-1,-1,-1,-1,-1,-1,-1,-1,-1,-1,-1,-1,-1,-1,-1,-1,-1,-1,-1,-1,-1,-1,-1,-1,-1,-1,-1,-1,-1,-1,-1,-1,-1,-1],"split_conditions":[3.132E3,1.673E3,3.993E3,-2.8367615E0,2.376E3,1.739E3,2.328E3,1.138E3,2.192E3,4.38E3,4.632E3,3.79E3,4.468E3,9.482117E-2,1.515E3,1.0450104E0,1.324E3,3.552E3,1.411E3,1.989E3,4.31E3,1.56E3,1.534E3,3.926E3,2.566E3,5.031E3,-3.618988E-1,3.852E3,4.342E3,1.534E3,1.432E3,4E3,4.128E3,1.832E3,3.869E3,1.808E3,2.3109742E-1,5.565E3,4.771E3,2.478E3,4.791E3,2.313E3,4.176E3,4.7874987E-1,4.345E3,-1.4327376E0,-5.706604E-1,-6.7857516E-1,-5.6399103E-2,-7.4094963E-1,5.8267824E-2,2.7915955E-1,-1.6100839E-1,-1.8888094E-1,4.8837677E-1,-1.0418472E0,-3.8565937E-2,3.6080173E-1,-9.445725E-2,-4.8616794E-1,-1.2158204E-1,-9.6022606E-1,-1.976532E-1,-1.4276734E-1,-3.6373902E-2,1.2675682E0,2.8874817E-1,2.4679413E-1,8.67421E-1,2.8752464E-1,-6.7371523E-1,6.753722E-1,3.2730263E-1,3.3349457E-1,-2.258606E-2,-4.2039448E-1,-7.785416E-2,2.9524842E-1,-1.3976833E-1],"split_indices":[6,6,6,0,6,0,1,1,3,4,5,4,6,0,0,0,1,6,0,0,4,0,0,4,1,7,0,4,5,1,0,3,3,0,6,0,0,5,5,2,7,0,4,0,4,0,0,0,0,0,0,0,0,0,0,0,0,0,0,0,0,0,0,0,0,0,0,0,0,0,0,0,0,0,0,0,0,0,0],"split_type":[0,0,0,0,0,0,0,0,0,0,0,0,0,0,0,0,0,0,0,0,0,0,0,0,0,0,0,0,0,0,0,0,0,0,0,0,0,0,0,0,0,0,0,0,0,0,0,0,0,0,0,0,0,0,0,0,0,0,0,0,0,0,0,0,0,0,0,0,0,0,0,0,0,0,0,0,0,0,0],"sum_hessian":[4E2,1E2,3E2,5E0,9.5E1,1.76E2,1.24E2,1.7E1,7.8E1,1.57E2,1.9E1,1E2,2.4E1,1E0,1.6E1,1E0,7.7E1,1.1E2,4.7E1,1.4E1,5E0,1.6E1,8.4E1,1.2E1,1.2E1,1.5E1,1E0,2.3E1,5.4E1,5.9E1,5.1E1,9E0,3.8E1,7E0,7E0,3E0,2E0,8E0,8E0,1.5E1,6.9E1,3E0,9E0,3E0,9E0,1.3E1,2E0,3E0,2E1,5E1,4E0,3.8E1,2.1E1,5E0,4.6E1,3E0,6E0,1.1E1,2.7E1,5E0,2E0,6E0,1E0,2E0,1E0,7E0,1E0,3E0,5E0,1.3E1,2E0,5.3E1,1.6E1,1E0,2E0,6E0,3E0,3E0,6E0],"tree_param":{"num_deleted":"0","num_feature":"8","num_nodes":"79","size_leaf_vector":"1"}},{"base_weights":[-2.133681E-2,-1.8708152E0,5.9932315E-1,-6.144053E0,-1.4371597E0,4.6749E-2,1.0248553E0,-1.9967148E0,-3.0761263E-1,8.882584E-1,-1.5171475E0,1.6566E-1,-7.433976E-1,1.2335643E0,-1.7851609E-1,-2.325837E0,-9.308322E-1,1.29714E0,-3.3090293E-2,9.6927744E-1,2.1011658E0,-6.144084E-1,3.812256E-1,8.059845E-2,-2.4032197E0,-4.4744945E-1,-2.3144925E0,-2.5144044E-1,1.7268575E0,-7.990473E-1,1.5877499E-1,1.3488696E0,2.4280015E-1,3.2663991E0,1.4525253E0,2.8347015E-1,-7.932805E-1,1.1610922E0,-3.4169224E-1,-7.641291E-1,-2.9189578E-1,-2.4561103E-1,2.4673004E-1,-2.760647E-1,-1.073193E0,2.8699952E-1,-4.1271976E-1,6.1287796E-1,-6.551819E-2,-5.636609E-1,2.7915133E-2,-4.4689772E-1,8.9267604E-2,1.0857995E0,3.6058742E-1,-5.2459717E-1,1.9369946E-1,1.0691153E0,3.8569337E-1,-2.6269227E-1,5.536597E-1,-1.1241456E-1,-3.8667452E-1,-3.019867E-2,4.3007264E-1,-1.9029237E-1,7.796936E-2],"categories":[],"categories_nodes":[],"categories_segments":[],"categories_sizes":[],"default_left":[0,0,0,0,0,0,0,0,0,0,0,0,0,0,0,0,0,0,0,0,0,0,0,0,0,0,0,0,0,0,0,0,0,0,0,0,0,0,0,0,0,0,0,0,0,0,0,0,0,0,0,0,0,0,0,0,0,0,0,0,0,0,0,0,0,0,0],"id":2,"left_children":[1,3,5,7,9,11,13,-1,-1,-1,15,17,-1,19,21,23,25,27,29,31,33,35,37,-1,39,41,43,45,47,49,51,53,55,57,59,-1,61,63,65,-1,-1,-1,-1,-1,-1,-1,-1,-1,-1,-1,-1,-1,-1,-1,-1,-1,-1,-1,-1,-1,-1,-1,-1,-1,-1,-1,-1],"loss_changes":[4.61428E2,1.7833444E2,7.072865E1,1.6746704E1,3.7208374E1,4.0039467E1,4.291646E1,0E0,0E0,0E0,4.145656E1,2.8602932E1,0E0,3.1211258E1,6.577892E0,8.274887E0,3.575045E1,1.3077793E1,1.6145569E1,3.0833939E1,2.0197449E1,4.9333243E0,7.162089E0,0E0,5.135498E0,2.0474188E1,2.1358139E1,8.107431E0,9.668667E0,2.1367584E1,2.0575525E1,2.0332947E1,3.3220566E1,1.8963852E0,2.2660686E1,0E0,2.421399E0,2.2071495E0,1.3970981E0,0E0,0E0,0E0,0E0,0E0,0E0,0E0,0E0,0E0,0E0,0E0,0E0,0E0,0E0,0E0,0E0,0E0,0E0,0E0,0E0,0E0,0E0,0E0,0E0,0E0,0E0,0E0,0E0],"parents":[2147483647,0,0,1,1,2,2,3,3,4,4,5,5,6,6,10,10,11,11,13,13,14,14,15,15,16,16,17,17,18,18,19,19,20,20,21,21,22,22,24,24,25,25,26,26,27,27,28,28,29,29,30,30,31,31,32,32,33,33,34,34,36,36,37,37,38,38],"right_children":[2,4,6,8,10,12,14,-1,-1,-1,16,18,-1,20,22,24,26,28,30,32,34,36,38,-1,40,42,44,46,48,50,52,54,56,58,60,-1,62,64,66,-1,-1,-1,-1,-1,-1,-1,-1,-1,-1,-1,-1,-1,-1,-1,-1,-1,-1,-1,-1,-1,-1,-1,-1,-1,-1,-1,-1],"split_conditions":[3.132E3,1.853E3,3.797E3,1.379E3,2.192E3,1.989E3,1.989E3,-1.9967148E0,-3.0761263E-1,8.882584E-1,3.641E3,3.058E3,-7.433976E-1,4.71E3,4.863E3,1.138E3,1.501E3,3.039E3,1.424E3,1.86E3,4.267E3,3.694E3,4.772E3,8.059845E-2,1.54E3,1.468E3,4.356E3,2.891E3,1.733E3,4.002E3,3.453E3,3.03E3,1.888E3,2.598E3,1.822E3,2.8347015E-1,2.652E3,2.062E3,2.387E3,-7.641291E-1,-2.9189578E-1,-2.4561103E-1,2.4673004E-1,-2.760647E-1,-1.073193E0,2.8699952E-1,-4.1271976E-1,6.1287796E-1,-6.551819E-2,-5.636609E-1,2.7915133E-2,-4.4689772E-1,8.9267604E-2,1.0857995E0,3.6058742E-1,-5.2459717E-1,1.9369946E-1,1.0691153E0,3.8569337E-1,-2.6269227E-1,5.536597E-1,-1.1241456E-1,-3.8667452E-1,-3.019867E-2,4.3007264E-1,-1.9029237E-1,7.796936E-2],"split_indices":[6,6,6,0,3,0,0,0,0,0,5,3,0,6,5,1,1,4,0,1,4,4,3,0,0,0,3,4,0,3,4,7,1,2,1,0,1,0,0,0,0,0,0,0,0,0,0,0,0,0,0,0,0,0,0,0,0,0,0,0,0,0,0,0,0,0,0],"split_type":[0,0,0,0,0,0,0,0,0,0,0,0,0,0,0,0,0,0,0,0,0,0,0,0,0,0,0,0,0,0,0,0,0,0,0,0,0,0,0,0,0,0,0,0,0,0,0,0,0,0,0,0,0,0,0,0,0,0,0,0,0,0,0,0,0,0,0],"sum_hessian":[4E2,1E2,3E2,8E0,9.2E1,1.31E2,1.69E2,7E0,1E0,1E0,9.1E1,1.26E2,5E0,1.44E2,2.5E1,3.7E1,5.4E1,1.8E1,1.08E2,1.12E2,3.2E1,1.4E1,1.1E1,1E0,3.6E1,4.1E1,1.3E1,4E0,1.4E1,2.1E1,8.7E1,7.3E1,3.9E1,1E1,2.2E1,1E0,1.3E1,5E0,6E0,3.2E1,4E0,3.2E1,9E0,7E0,6E0,2E0,2E0,1.2E1,2E0,9E0,1.2E1,6E0,8.1E1,3E0,7E1,6E0,3.3E1,8E0,2E0,3E0,1.9E1,8E0,5E0,1E0,4E0,4E0,2E0],"tree_param":{"num_deleted":"0","num_feature":"8","num_nodes":"67","size_leaf_vector":"1"}},{"base_weights":[-1.9977521E-2,-2.8492029E0,1.9188955E-1,-1.6283952E0,-2.052599E0,-5.426862E-1,5.7178354E-1,-2.6576145E0,-1.0003173E0,-3.4032026E-1,-2.0444884E0,3.0826974E-1,9.6260947E-1,6.8508916E-2,-2.8971791E0,-5.381208E-1,-4.6772462E-1,-6.290739E-1,7.6871747E-1,-1.0344238E0,-8.3969766E-1,6.749316E-1,-2.1712568E-1,1.2150104E0,2.3978494E-2,-9.6616155E-1,-4.09346E-1,-2.8274462E-1,7.7056885E-4,5.4674023E-1,-7.975826E-1,1.8195564E0,1.2957573E-1,-1.3133371E0,1.3769531E-1,9.3578416E-1,-1.5016174E-1,-1.6577415E0,-3.6338114E-3,1.7310156E0,7.547501E-1,-7.3027205E-1,5.071411E-1,3.3988953E-2,-2.2351075E-2,4.5600384E-2,3.8946536E-1,-3.9936754E-1,-5.1820535E-2,7.133072E-1,1.5823975E-1,-1.025589E-1,3.7053406E-1,-4.741623E-1,4.3482974E-2,5.774998E-1,1.8402435E-1,-1.3162446E-1,5.4714054E-1,-6.134125E-1,-9.93683E-2,4.502845E-2,-6.003594E-1,3.36298E-1,6.4889514E-1,-1.1957805E-2,3.8275066E-1,2.6067354E-2,-3.4600067E-1,3.826685E-1,2.1665039E-2],"categories":[],"categories_nodes":[],"categories_segments":[],"categories_sizes":[],"default_left":[0,0,0,0,0,0,0,0,0,0,0,0,0,0,0,0,0,0,0,0,0,0,0,0,0,0,0,0,0,0,0,0,0,0,0,0,0,0,0,0,0,0,0,0,0,0,0,0,0,0,0,0,0,0,0,0,0,0,0,0,0,0,0,0,0,0,0,0,0,0,0],"id":3,"left_children":[1,3,5,-1,7,9,11,13,15,17,19,21,23,-1,25,27,-1,29,31,33,-1,35,37,39,41,-1,-1,-1,43,45,47,49,51,53,-1,55,57,59,61,63,65,67,69,-1,-1,-1,-1,-1,-1,-1,-1,-1,-1,-1,-1,-1,-1,-1,-1,-1,-1,-1,-1,-1,-1,-1,-1,-1,-1,-1,-1],"loss_changes":[2.4091403E2,4.6378006E1,1.0467908E2,0E0,1.1984413E1,3.820517E1,2.5141304E1,1.0340912E1,1.743617E0,3.699079E1,8.536125E0,2.8850273E1,2.3425087E1,0E0,2.0485458E0,1.5260735E0,0E0,1.8466347E1,1.5883471E1,3.935052E0,0E0,1.9080555E1,1.9062681E1,1.7218262E1,8.387716E0,0E0,0E0,0E0,4.2322174E-2,3.3623188E0,2.6445656E1,5.236288E0,8.7613325E0,2.9566965E0,0E0,2.0185005E1,1.3332689E1,3.4292717E0,1.7189924E1,7.061676E0,1.7855408E1,3.2116222E0,4.5867496E0,0E0,0E0,0E0,0E0,0E0,0E0,0E0,0E0,0E0,0E0,0E0,0E0,0E0,0E0,0E0,0E0,0E0,0E0,0E0,0E0,0E0,0E0,0E0,0E0,0E0,0E0,0E0,0E0],"parents":[2147483647,0,0,1,1,2,2,4,4,5,5,6,6,7,7,8,8,9,9,10,10,11,11,12,12,14,14,15,15,17,17,18,18,19,19,21,21,22,22,23,23,24,24,28,28,29,29,30,30,31,31,32,32,33,33,35,35,36,36,37,37,38,38,39,39,40,40,41,41,42,42],"right_children":[2,4,6,-1,8,10,12,14,16,18,20,22,24,-1,26,28,-1,30,32,34,-1,36,38,40,42,-1,-1,-1,44,46,48,50,52,54,-1,56,58,60,62,64,66,68,70,-1,-1,-1,-1,-1,-1,-1,-1,-1,-1,-1,-1,-1,-1,-1,-1,-1,-1,-1,-1,-1,-1,-1,-1,-1,-1,-1,-1],"split_conditions":[2.467E3,1.673E3,3.417E3,-1.6283952E0,1.674E3,1.664E3,4.178E3,1.138E3,1.749E3,1.513E3,3.498E3,2.156E3,2.304E3,6.8508916E-2,4.979E3,1.338E3,-4.6772462E-1,1.298E3,1.773E3,1.839E3,-8.3969766E-1,1.601E3,3.646E3,4.316E3,4.468E3,-9.6616155E-1,-4.09346E-1,-2.8274462E-1,1.298E3,1.286E3,3.073E3,1.575E3,4.276E3,3.496E3,1.3769531E-1,3.49E3,2.142E3,2.252E3,5.417E3,1.797E3,4.475E3,4.005E3,2.566E3,3.3988953E-2,-2.2351075E-2,4.5600384E-2,3.8946536E-1,-3.9936754E-1,-5.1820535E-2,7.133072E-1,1.5823975E-1,-1.025589E-1,3.7053406E-1,-4.741623E-1,4.3482974E-2,5.774998E-1,1.8402435E-1,-1.3162446E-1,5.4714054E-1,-6.134125E-1,-9.93683E-2,4.502845E-2,-6.003594E-1,3.36298E-1,6.4889514E-1,-1.1957805E-2,3.8275066E-1,2.6067354E-2,-3.4600067E-1,3.826685E-1,2.1665039E-2],"split_indices":[6,6,6,0,2,1,6,1,2,0,3,2,1,0,7,0,0,1,2,1,0,0,4,7,6,0,0,0,1,1,6,0,5,3,0,7,2,1,5,1,4,7,1,0,0,0,0,0,0,0,0,0,0,0,0,0,0,0,0,0,0,0,0,0,0,0,0,0,0,0,0],"split_type":[0,0,0,0,0,0,0,0,0,0,0,0,0,0,0,0,0,0,0,0,0,0,0,0,0,0,0,0,0,0,0,0,0,0,0,0,0,0,0,0,0,0,0,0,0,0,0,0,0,0,0,0,0,0,0,0,0,0,0,0,0,0,0,0,0,0,0,0,0,0,0],"sum_hessian":[4E2,2.7E1,3.73E2,5E0,2.2E1,1.27E2,2.46E2,1.3E1,9E0,1.13E2,1.4E1,1.48E2,9.8E1,1E0,1.2E1,6E0,3E0,9E1,2.3E1,7E0,7E0,8.7E1,6.1E1,7.7E1,2.1E1,9E0,3E0,3E0,3E0,1.1E1,7.9E1,8E0,1.5E1,6E0,1E0,6.6E1,2.1E1,7E0,5.4E1,3.5E1,4.2E1,8E0,1.3E1,1E0,2E0,8E0,3E0,4.2E1,3.7E1,5E0,3E0,1.1E1,4E0,5E0,1E0,1.5E1,5.1E1,1.9E1,2E0,5E0,2E0,5.1E1,3E0,1.6E1,1.9E1,1.7E1,2.5E1,3E0,5E0,4E0,9E0],"tree_param":{"num_deleted":"0","num_feature":"8","num_nodes":"71","size_leaf_vector":"1"}},{"base_weights":[-1.980568E-2,-2.1256714E0,1.3790567E-1,-1.2953302E0,-1.5804151E0,-3.1088638E-1,4.7124904E-1,-2.0125895E0,-7.741119E-1,-1.3422114E-1,-1.4129583E0,2.5536377E0,4.1966993E-1,-7.151123E-1,-2.4193892E0,-4.1541836E-1,-3.6248934E-1,-2.2342153E-2,-1.5752258E0,-1.7472112E0,-8.3713377E-1,8.888512E-1,1.3752595E-1,-1.2992592E0,4.850217E-1,5.8232117E-2,-2.9728317E-1,-2.7676392E0,-3.3541262E-1,-2.191269E-1,3.440857E-3,-1.7171347E-1,1.1342854E0,-2.1156442E0,-2.3568726E-1,-1.2133517E0,-2.3587158E0,-3.2507324E-1,-4.571869E-1,-1.5349513E0,5.2587893E-2,5.6401175E-1,-5.478536E-1,-8.948535E-1,-1.8918E-1,2.8889466E-2,-1.7883303E-2,1.7804261E-2,-2.8066713E-1,5.1385164E-1,-5.7052616E-3,-7.7798164E-1,1.1251832E-1,4.7630314E-2,-1.2602845E-1,3.695984E-2,-4.187462E-1,-7.9484713E-1,-1.7934266E-1,-2.6790163E-1,2.4210205E-2,4.55658E-2,-5.524216E-1,-1.1936761E-1,1.9462031E-1,-2.9017118E-1,-4.8238117E-2],"categories":[],"categories_nodes":[],"categories_segments":[],"categories_sizes":[],"default_left":[0,0,0,0,0,0,0,0,0,0,0,0,0,0,0,0,0,0,0,0,0,0,0,0,0,0,0,0,0,0,0,0,0,0,0,0,0,0,0,0,0,0,0,0,0,0,0,0,0,0,0,0,0,0,0,0,0,0,0,0,0,0,0,0,0,0,0],"id":4,"left_children":[1,3,5,-1,7,9,11,13,15,17,19,21,23,25,27,29,-1,31,33,35,37,-1,-1,39,41,-1,-1,43,-1,-1,45,47,49,51,53,55,57,59,-1,61,-1,63,65,-1,-1,-1,-1,-1,-1,-1,-1,-1,-1,-1,-1,-1,-1,-1,-1,-1,-1,-1,-1,-1,-1,-1,-1],"loss_changes":[1.3347282E2,2.6643257E1,5.6097595E1,0E0,6.8051605E0,3.0962002E1,2.2020977E1,6.187069E0,1.0554471E0,2.2374126E1,2.7717133E0,2.928585E0,2.4332874E1,1.4463062E0,1.8908005E0,9.2611146E-1,0E0,2.265448E1,6.7404823E0,1.3819923E0,3.0215492E0,0E0,0E0,3.049388E0,1.6952713E1,0E0,0E0,1.7982407E0,0E0,0E0,2.9159749E-2,2.0528881E1,1.0041283E1,9.300043E0,3.5765937E-1,2.3668747E0,9.762478E-1,1.6852304E0,0E0,3.8982487E0,0E0,1.5742165E1,2.2793732E0,0E0,0E0,0E0,0E0,0E0,0E0,0E0,0E0,0E0,0E0,0E0,0E0,0E0,0E0,0E0,0E0,0E0,0E0,0E0,0E0,0E0,0E0,0E0,0E0],"parents":[2147483647,0,0,1,1,2,2,4,4,5,5,6,6,7,7,8,8,9,9,10,10,11,11,12,12,13,13,14,14,15,15,17,17,18,18,19,19,20,20,23,23,24,24,27,27,30,30,31,31,32,32,33,33,34,34,35,35,36,36,37,37,39,39,41,41,42,42],"right_children":[2,4,6,-1,8,10,12,14,16,18,20,22,24,26,28,30,-1,32,34,36,38,-1,-1,40,42,-1,-1,44,-1,-1,46,48,50,52,54,56,58,60,-1,62,-1,64,66,-1,-1,-1,-1,-1,-1,-1,-1,-1,-1,-1,-1,-1,-1,-1,-1,-1,-1,-1,-1,-1,-1,-1,-1],"split_conditions":[2.467E3,2.094E3,3.552E3,-1.2953302E0,1.674E3,1.664E3,3.03E3,1.198E3,1.749E3,4.833E3,1.639E3,3.209E3,1.411E3,1.138E3,1.614E3,1.338E3,-3.6248934E-1,1.976E3,4.306E3,1.574E3,1.989E3,8.888512E-1,1.3752595E-1,1.872E3,2.313E3,5.8232117E-2,-2.9728317E-1,1.367E3,-3.3541262E-1,-2.191269E-1,1.298E3,1.885E3,4.4E3,1.426E3,1.318E3,1.968E3,1.81E3,1.718E3,-4.571869E-1,1.312E3,5.2587893E-2,3.496E3,2.387E3,-8.948535E-1,-1.8918E-1,2.8889466E-2,-1.7883303E-2,1.7804261E-2,-2.8066713E-1,5.1385164E-1,-5.7052616E-3,-7.7798164E-1,1.1251832E-1,4.7630314E-2,-1.2602845E-1,3.695984E-2,-4.187462E-1,-7.9484713E-1,-1.7934266E-1,-2.6790163E-1,2.4210205E-2,4.55658E-2,-5.524216E-1,-1.1936761E-1,1.9462031E-1,-2.9017118E-1,-4.8238117E-2],"split_indices":[6,3,6,0,2,1,7,1,2,4,0,4,0,1,2,0,0,2,5,0,0,0,0,1,0,0,0,0,0,0,1,2,3,0,0,2,1,1,0,0,0,4,0,0,0,0,0,0,0,0,0,0,0,0,0,0,0,0,0,0,0,0,0,0,0,0,0],"split_type":[0,0,0,0,0,0,0,0,0,0,0,0,0,0,0,0,0,0,0,0,0,0,0,0,0,0,0,0,0,0,0,0,0,0,0,0,0,0,0,0,0,0,0,0,0,0,0,0,0,0,0,0,0,0,0,0,0,0,0,0,0,0,0,0,0,0,0],"sum_hessian":[4E2,2.7E1,3.73E2,4E0,2.3E1,1.59E2,2.14E2,1.4E1,9E0,1.38E2,2.1E1,4E0,2.1E2,4E0,1E1,6E0,3E0,1.29E2,9E0,1.2E1,9E0,3E0,1E0,7E0,2.03E2,1E0,3E0,7E0,3E0,3E0,3E0,1.15E2,1.4E1,6E0,3E0,8E0,4E0,6E0,3E0,6E0,1E0,1.89E2,1.4E1,6E0,1E0,1E0,2E0,8.9E1,2.6E1,9E0,5E0,5E0,1E0,1E0,2E0,1E0,7E0,3E0,1E0,2E0,4E0,1E0,5E0,1.5E1,1.74E2,6E0,8E0],"tree_param":{"num_deleted":"0","num_feature":"8","num_nodes":"67","size_leaf_vector":"1"}},{"base_weights":[-2.824847E-2,-1.1539416E0,1.42783E-1,-2.3363101E0,-7.11264E-1,1.4991643E0,9.0036005E-2,-2.7922273E0,-2.8716433E-1,-3.4827307E-1,-2.1196938E0,2.461314E0,5.9015656E-1,-1.5159592E-1,4.3957475E-1,-9.254471E-1,-3.243683E-1,-8.3316684E-1,2.891439E-1,-7.51377E-1,-3.3259508E-1,1.4268494E-1,8.2899904E-1,-1.1087952E-1,7.8006417E-1,-1.4962196E0,-9.507475E-2,8.5418856E-1,1.1911397E-1,-1.1945953E0,1.4902751E-1,1.6583862E0,-5.613159E-1,7.956848E-2,2.798859E-1,-1.7468523E0,3.8731385E-2,2.9173682E-2,-7.4531406E-1,-5.466248E-1,9.7788894E-1,-8.252106E-1,3.176205E-1,2.32576E-1,-4.2172715E-1,-6.32927E-2,1.7380677E-1,5.743891E-1,5.6575015E-2,-5.2054273E-4,-4.20076E-1,-1.3198243E-1,-6.5448856E-1,3.9316356E-2,-2.5605363E-1,-1.328647E-1,-3.3899936E-1,7.215184E-2,4.0789685E-1,-7.233925E-2,-4.124529E-1,4.744263E-1,3.481119E-2],"categories":[],"categories_nodes":[],"categories_segments":[],"categories_sizes":[],"default_left":[0,0,0,0,0,0,0,0,0,0,0,0,0,0,0,0,0,0,0,0,0,0,0,0,0,0,0,0,0,0,0,0,0,0,0,0,0,0,0,0,0,0,0,0,0,0,0,0,0,0,0,0,0,0,0,0,0,0,0,0,0,0,0],"id":5,"left_children":[1,3,5,7,9,11,13,15,-1,17,19,21,23,25,27,-1,-1,29,31,-1,-1,-1,-1,-1,33,35,37,39,41,43,45,47,49,-1,-1,51,-1,53,55,-1,57,59,61,-1,-1,-1,-1,-1,-1,-1,-1,-1,-1,-1,-1,-1,-1,-1,-1,-1,-1,-1,-1],"loss_changes":[7.736887E1,2.6078888E1,2.4834244E1,6.1297913E0,1.9711657E1,9.917257E0,2.8529562E1,1.670929E0,0E0,1.0440528E1,3.364601E-1,2.2839928E0,1.7464287E0,1.505769E1,1.8233965E1,0E0,0E0,6.9228945E0,1.8398163E1,0E0,0E0,0E0,0E0,0E0,3.035426E-1,3.4844036E0,1.5614448E1,2.164515E1,1.5071014E1,6.91321E0,1.0517473E0,1.8986988E0,4.6921024E0,0E0,0E0,3.017704E0,0E0,1.4770245E1,3.1061E0,0E0,1.6000484E1,4.1628914E0,1.6630716E1,0E0,0E0,0E0,0E0,0E0,0E0,0E0,0E0,0E0,0E0,0E0,0E0,0E0,0E0,0E0,0E0,0E0,0E0,0E0,0E0],"parents":[2147483647,0,0,1,1,2,2,3,3,4,4,5,5,6,6,7,7,9,9,10,10,11,11,12,12,13,13,14,14,17,17,18,18,24,24,25,25,26,26,27,27,28,28,29,29,30,30,31,31,32,32,35,35,37,37,38,38,40,40,41,41,42,42],"right_children":[2,4,6,8,10,12,14,16,-1,18,20,22,24,26,28,-1,-1,30,32,-1,-1,-1,-1,-1,34,36,38,40,42,44,46,48,50,-1,-1,52,-1,54,56,-1,58,60,62,-1,-1,-1,-1,-1,-1,-1,-1,-1,-1,-1,-1,-1,-1,-1,-1,-1,-1,-1,-1],"split_conditions":[2.749E3,3.496E3,3.03E3,1.509E3,4.833E3,1.452E3,4.873E3,3.468E3,-2.8716433E-1,3.565E3,4.78E3,3.047E3,2.566E3,1.312E3,4.324E3,-9.254471E-1,-3.243683E-1,4.511E3,4.262E3,-7.51377E-1,-3.3259508E-1,1.4268494E-1,8.2899904E-1,-1.1087952E-1,3.267E3,1.458E3,1.744E3,3.453E3,3.9E3,1.484E3,4.81E3,1.353E3,2.672E3,7.956848E-2,2.798859E-1,1.278E3,3.8731385E-2,4.784E3,4.031E3,-5.466248E-1,1.544E3,2.144E3,2.174E3,2.32576E-1,-4.2172715E-1,-6.32927E-2,1.7380677E-1,5.743891E-1,5.6575015E-2,-5.2054273E-4,-4.20076E-1,-1.3198243E-1,-6.5448856E-1,3.9316356E-2,-2.5605363E-1,-1.328647E-1,-3.3899936E-1,7.215184E-2,4.0789685E-1,-7.233925E-2,-4.124529E-1,4.744263E-1,3.481119E-2],"split_indices":[6,3,7,0,4,1,5,3,0,5,3,6,3,0,4,0,0,4,4,0,0,0,0,0,6,1,0,4,6,2,4,1,6,0,0,1,0,5,7,0,0,2,2,0,0,0,0,0,0,0,0,0,0,0,0,0,0,0,0,0,0,0,0],"split_type":[0,0,0,0,0,0,0,0,0,0,0,0,0,0,0,0,0,0,0,0,0,0,0,0,0,0,0,0,0,0,0,0,0,0,0,0,0,0,0,0,0,0,0,0,0,0,0,0,0,0,0,0,0,0,0,0,0,0,0,0,0,0,0],"sum_hessian":[4E2,5.2E1,3.48E2,1.3E1,3.9E1,1.2E1,3.36E2,9E0,4E0,3.2E1,7E0,5E0,7E0,1.99E2,1.37E2,7E0,2E0,1.8E1,1.4E1,4E0,3E0,1E0,4E0,1E0,6E0,7E0,1.92E2,5.9E1,7.8E1,1.3E1,5E0,5E0,9E0,2E0,4E0,6E0,1E0,1.62E2,3E1,2E0,5.7E1,1.3E1,6.5E1,1E0,1.2E1,3E0,2E0,4E0,1E0,6E0,3E0,2E0,4E0,1.46E2,1.6E1,1.8E1,1.2E1,2E1,3.7E1,7E0,6E0,8E0,5.7E1],"tree_param":{"num_deleted":"0","num_feature":"8","num_nodes":"63","size_leaf_vector":"1"}},{"base_weights":[-2.662396E-2,-6.4029896E-1,1.6336219E-1,-2.285832E0,-5.0368065E-1,8.175008E-2,6.9085175E-1,-8.2359743E-1,-2.2742006E-1,-2.6307273E-1,-1.2244831E0,6.613689E-1,-1.4368472E-2,1.5201925E0,3.3608705E-1,-5.935825E-1,2.9365775E-1,-4.4429016E-1,-1.5589539E0,1.6456672E0,3.440338E-1,-8.418551E-1,7.280414E-2,1.7545379E0,2.3230998E-1,-3.626293E-1,7.035767E-1,5.210037E-1,-6.904144E-1,4.7722372E-1,-3.8182682E-1,-1.0523255E0,4.2682648E-1,-1.8222234E0,1.0153198E-1,6.131795E-1,1.8530666E0,-5.177582E-1,5.535213E-1,4.0563455E-1,-1.2326248E0,-1.0226346E0,1.4472242E-1,1.5374452E-1,2.0009918E0,9.5182806E-2,9.35669E-3,6.067047E-1,-8.019676E-1,1.315771E0,-4.01947E-2,-3.4741613E-1,-8.7429814E-2,3.7161257E-2,3.953012E-1,-3.4768984E-1,-9.386445E-2,2.0083009E-1,3.6843874E-2,-6.0404575E-1,-2.6655352E-1,4.8088077E-2,-2.3986818E-3,-5.6533813E-3,2.8158417E-1,5.964081E-1,1.5649568E-1,2.3676373E-1,-1.326645E-1,1.9557129E-1,-1.2385712E-1,-2.6576585E-1,-6.414162E-1,-4.6235391E-1,-4.824066E-2,1.2901743E-1,-2.9789636E-2,6.354296E-1,1.771866E-1,-3.626404E-2,2.6685792E-1,-4.8198166E-1,6.4086914E-4,1.0091554E-1,4.4881085E-1,-3.494446E-1,1.1596871E-1],"categories":[],"categories_nodes":[],"categories_segments":[],"categories_sizes":[],"default_left":[0,0,0,0,0,0,0,0,0,0,0,0,0,0,0,0,0,0,0,0,0,0,0,0,0,0,0,0,0,0,0,0,0,0,0,0,0,0,0,0,0,0,0,0,0,0,0,0,0,0,0,0,0,0,0,0,0,0,0,0,0,0,0,0,0,0,0,0,0,0,0,0,0,0,0,0,0,0,0,0,0,0,0,0,0,0,0],"id":6,"left_children":[1,3,5,7,9,11,13,-1,-1,15,17,19,21,23,25,27,29,31,33,35,37,39,41,43,45,47,49,-1,51,53,-1,55,57,59,61,63,65,-1,67,69,71,73,75,-1,77,-1,-1,79,81,83,85,-1,-1,-1,-1,-1,-1,-1,-1,-1,-1,-1,-1,-1,-1,-1,-1,-1,-1,-1,-1,-1,-1,-1,-1,-1,-1,-1,-1,-1,-1,-1,-1,-1,-1,-1,-1],"loss_changes":[4.6857086E1,2.0205616E1,1.3159732E1,2.83284E0,1.5113209E1,1.4884639E1,1.1552135E1,0E0,0E0,1.268664E1,5.048313E0,1.1303226E1,1.6652151E1,3.2141151E0,7.958267E0,1.0901708E1,8.083436E0,4.6865177E0,6.742344E0,7.9097176E-1,1.396381E1,1.1224576E1,1.661345E1,2.0356274E0,4.136984E-2,5.171079E0,9.159538E0,0E0,7.498846E0,6.9641623E0,0E0,3.1654835E-2,2.1280837E-1,5.325813E-1,2.0589693E-2,6.34735E-1,2.2076035E-1,0E0,6.9202156E0,1.4785614E0,3.4430313E0,5.561862E0,1.3759409E1,0E0,7.0316315E-2,0E0,0E0,9.3063295E-1,5.1795316E0,1.4387951E0,5.249671E0,0E0,0E0,0E0,0E0,0E0,0E0,0E0,0E0,0E0,0E0,0E0,0E0,0E0,0E0,0E0,0E0,0E0,0E0,0E0,0E0,0E0,0E0,0E0,0E0,0E0,0E0,0E0,0E0,0E0,0E0,0E0,0E0,0E0,0E0,0E0,0E0],"parents":[2147483647,0,0,1,1,2,2,3,3,4,4,5,5,6,6,9,9,10,10,11,11,12,12,13,13,14,14,15,15,16,16,17,17,18,18,19,19,20,20,21,21,22,22,23,23,24,24,25,25,26,26,28,28,29,29,31,31,32,32,33,33,34,34,35,35,36,36,38,38,39,39,40,40,41,41,42,42,44,44,47,47,48,48,49,49,50,50],"right_children":[2,4,6,8,10,12,14,-1,-1,16,18,20,22,24,26,28,30,32,34,36,38,40,42,44,46,48,50,-1,52,54,-1,56,58,60,62,64,66,-1,68,70,72,74,76,-1,78,-1,-1,80,82,84,86,-1,-1,-1,-1,-1,-1,-1,-1,-1,-1,-1,-1,-1,-1,-1,-1,-1,-1,-1,-1,-1,-1,-1,-1,-1,-1,-1,-1,-1,-1,-1,-1,-1,-1,-1,-1],"split_conditions":[3.073E3,1.22E3,4.71E3,4.496E3,1.452E3,1.838E3,4.267E3,-8.2359743E-1,-2.2742006E-1,3.706E3,3.364E3,1.388E3,4.182E3,5.112E3,4.949E3,2.192E3,4.163E3,2.65E3,1.584E3,2.85E3,1.647E3,3.02E3,1.892E3,1.513E3,1.652E3,5.801E3,1.744E3,5.210037E-1,1.647E3,1.828E3,-3.8182682E-1,1.639E3,1.318E3,1.499E3,1.606E3,1.365E3,1.385E3,-5.177582E-1,4.346E3,1.707E3,4.163E3,1.456E3,2.184E3,1.5374452E-1,4.256E3,9.5182806E-2,9.35669E-3,1.443E3,2.508E3,1.604E3,4.477E3,-3.4741613E-1,-8.7429814E-2,3.7161257E-2,3.953012E-1,-3.4768984E-1,-9.386445E-2,2.0083009E-1,3.6843874E-2,-6.0404575E-1,-2.6655352E-1,4.8088077E-2,-2.3986818E-3,-5.6533813E-3,2.8158417E-1,5.964081E-1,1.5649568E-1,2.3676373E-1,-1.326645E-1,1.9557129E-1,-1.2385712E-1,-2.6576585E-1,-6.414162E-1,-4.6235391E-1,-4.824066E-2,1.2901743E-1,-2.9789636E-2,6.354296E-1,1.771866E-1,-3.626404E-2,2.6685792E-1,-4.8198166E-1,6.4086914E-4,1.0091554E-1,4.4881085E-1,-3.494446E-1,1.1596871E-1],"split_indices":[6,0,6,3,1,2,4,0,0,5,7,0,5,6,6,3,5,3,0,3,2,3,2,0,0,5,0,0,2,2,0,0,0,0,0,0,0,0,7,0,5,0,2,0,3,0,0,0,2,0,4,0,0,0,0,0,0,0,0,0,0,0,0,0,0,0,0,0,0,0,0,0,0,0,0,0,0,0,0,0,0,0,0,0,0,0,0],"split_type":[0,0,0,0,0,0,0,0,0,0,0,0,0,0,0,0,0,0,0,0,0,0,0,0,0,0,0,0,0,0,0,0,0,0,0,0,0,0,0,0,0,0,0,0,0,0,0,0,0,0,0,0,0,0,0,0,0,0,0,0,0,0,0,0,0,0,0,0,0,0,0,0,0,0,0,0,0,0,0,0,0,0,0,0,0,0,0],"sum_hessian":[4E2,9.4E1,3.06E2,6E0,8.8E1,2.66E2,4E1,4E0,2E0,6.7E1,2.1E1,3.7E1,2.29E2,1.1E1,2.9E1,4.2E1,2.5E1,7E0,1.4E1,8E0,2.9E1,2.1E1,2.08E2,9E0,2E0,1E1,1.9E1,1E0,4.1E1,2.3E1,2E0,4E0,3E0,1.2E1,2E0,2E0,6E0,2E0,2.7E1,5E0,1.6E1,1.2E1,1.96E2,2E0,7E0,1E0,1E0,3E0,7E0,1E1,9E0,1.8E1,2.3E1,1.7E1,6E0,3E0,1E0,1E0,2E0,9E0,3E0,1E0,1E0,1E0,1E0,5E0,1E0,2.2E1,5E0,4E0,1E0,1.3E1,3E0,7E0,5E0,9E1,1.06E2,6E0,1E0,1E0,2E0,3E0,4E0,2E0,8E0,2E0,7E0],"tree_param":{"num_deleted":"0","num_feature":"8","num_nodes":"87","size_leaf_vector":"1"}},{"base_weights":[-2.2226842E-2,-3.3946967E-1,1.7694265E-1,-2.2887269E-1,-1.2859764E0,4.2699265E-1,2.8343005E-2,-6.259314E-1,-1.5889695E-1,-9.2265457E-1,-1.737737E0,5.593987E-1,-1.0331955E0,-1.0773994E0,9.5392585E-2,5.9315607E-2,-4.4468817E-1,-3.7248886E-1,-2.9155883E-1,-6.6793215E-1,-5.068868E-1,-3.7431246E-1,7.8133625E-1,-4.8457947E-1,-4.7309875E-2,-4.2926943E-1,-2.778015E-1,-5.073822E-1,1.8810657E-1,-2.3382048E-1,4.8800564E-1,-8.280945E-1,-2.110138E-1,-3.8983917E-1,1.5234375E-2,-2.585495E-1,3.0450441E-2,3.4705946E-1,-1.0540941E0,1.1639913E-1,1.1112744E0,-1.3843232E-1,7.3364265E-2,4.3272402E-2,-1.3996887E-1,-1.1031051E0,1.9865112E-1,5.7593095E-1,2.58736E-2,4.366791E-1,-1.0237569E-1,6.473732E-2,3.4790653E-1,-5.4315495E-1,-1.5275829E-1,-1.355734E-1,8.610394E-2,-5.02594E-2,-1.5851441E-1,-1.01996616E-1,2.2417451E-1,-4.3352968E-1,-6.1219025E-2,3.3726704E-1,-1.3733311E-1,1.0382146E-1,4.2066932E-1,-7.054138E-2,-4.1976014E-1,-1.4483948E-1,1.2880898E-1,2.5452805E-1,-2.256121E-1,-3.662478E-2,1.59576E-1],"categories":[],"categories_nodes":[],"categories_segments":[],"categories_sizes":[],"default_left":[0,0,0,0,0,0,0,0,0,0,0,0,0,0,0,0,0,0,0,0,0,0,0,0,0,0,0,0,0,0,0,0,0,0,0,0,0,0,0,0,0,0,0,0,0,0,0,0,0,0,0,0,0,0,0,0,0,0,0,0,0,0,0,0,0,0,0,0,0,0,0,0,0,0,0],"id":7,"left_children":[1,3,5,7,9,11,13,-1,15,17,19,21,23,25,27,29,31,-1,33,-1,35,37,39,-1,41,-1,43,45,47,49,51,53,55,57,-1,-1,-1,59,61,63,65,-1,-1,-1,-1,67,69,71,73,-1,-1,-1,-1,-1,-1,-1,-1,-1,-1,-1,-1,-1,-1,-1,-1,-1,-1,-1,-1,-1,-1,-1,-1,-1,-1],"loss_changes":[2.539729E1,1.5931196E1,9.165762E0,1.7866299E1,1.0228214E0,1.836504E1,1.1668549E1,0E0,8.507776E0,1.8523321E0,2.4805717E0,1.7906637E1,4.514414E0,2.1464062E0,8.366517E0,9.915938E0,5.1112022E0,0E0,1.88023E-1,0E0,7.3531E-1,8.702215E0,1.5008427E1,0E0,5.9631324E-1,0E0,3.8595927E-1,8.631136E0,8.101507E0,9.027093E0,5.6006875E0,5.9705763E0,4.688696E0,3.4675658E-2,0E0,0E0,0E0,2.7285972E0,2.6964025E0,1.4402692E1,9.75621E0,0E0,0E0,0E0,0E0,2.4980068E0,1.7794822E0,1.4388985E1,6.953226E0,0E0,0E0,0E0,0E0,0E0,0E0,0E0,0E0,0E0,0E0,0E0,0E0,0E0,0E0,0E0,0E0,0E0,0E0,0E0,0E0,0E0,0E0,0E0,0E0,0E0,0E0],"parents":[2147483647,0,0,1,1,2,2,3,3,4,4,5,5,6,6,8,8,9,9,10,10,11,11,12,12,13,13,14,14,15,15,16,16,18,18,20,20,21,21,22,22,24,24,26,26,27,27,28,28,29,29,30,30,31,31,32,32,33,33,37,37,38,38,39,39,40,40,45,45,46,46,47,47,48,48],"right_children":[2,4,6,8,10,12,14,-1,16,18,20,22,24,26,28,30,32,-1,34,-1,36,38,40,-1,42,-1,44,46,48,50,52,54,56,58,-1,-1,-1,60,62,64,66,-1,-1,-1,-1,68,70,72,74,-1,-1,-1,-1,-1,-1,-1,-1,-1,-1,-1,-1,-1,-1,-1,-1,-1,-1,-1,-1,-1,-1,-1,-1,-1,-1],"split_conditions":[3.417E3,4.833E3,4.017E3,1.22E3,5.052E3,4.291E3,1.419E3,-6.259314E-1,1.452E3,4.143E3,5.127E3,4.192E3,1.636E3,1.714E3,3.91E3,3.893E3,1.474E3,-3.7248886E-1,4.998E3,-6.6793215E-1,1.248E3,3.02E3,2.002E3,-4.8457947E-1,4.264E3,-4.2926943E-1,1.381E3,4.195E3,4.172E3,3.026E3,1.421E3,1.479E3,4.24E3,1.376E3,1.5234375E-2,-2.585495E-1,3.0450441E-2,3.962E3,2.252E3,1.817E3,3.635E3,-1.3843232E-1,7.3364265E-2,4.3272402E-2,-1.3996887E-1,4.005E3,4.569E3,1.994E3,4.949E3,4.366791E-1,-1.0237569E-1,6.473732E-2,3.4790653E-1,-5.4315495E-1,-1.5275829E-1,-1.355734E-1,8.610394E-2,-5.02594E-2,-1.5851441E-1,-1.01996616E-1,2.2417451E-1,-4.3352968E-1,-6.1219025E-2,3.3726704E-1,-1.3733311E-1,1.0382146E-1,4.2066932E-1,-7.054138E-2,-4.1976014E-1,-1.4483948E-1,1.2880898E-1,2.5452805E-1,-2.256121E-1,-3.662478E-2,1.59576E-1],"split_indices":[6,4,4,0,4,7,0,0,1,5,4,5,0,1,3,5,0,0,4,0,0,3,2,0,3,0,0,4,3,7,1,1,5,0,0,0,0,5,1,2,4,0,0,0,0,7,5,1,6,0,0,0,0,0,0,0,0,0,0,0,0,0,0,0,0,0,0,0,0,0,0,0,0,0,0],"split_type":[0,0,0,0,0,0,0,0,0,0,0,0,0,0,0,0,0,0,0,0,0,0,0,0,0,0,0,0,0,0,0,0,0,0,0,0,0,0,0,0,0,0,0,0,0,0,0,0,0,0,0,0,0,0,0,0,0,0,0,0,0,0,0,0,0,0,0,0,0,0,0,0,0,0,0],"sum_hessian":[4E2,1.54E2,2.46E2,1.39E2,1.5E1,9.1E1,1.55E2,4E0,1.35E2,1E1,5E0,8.4E1,7E0,8E0,1.47E2,7.7E1,5.8E1,6E0,4E0,3E0,2E0,1.6E1,6.8E1,4E0,3E0,5E0,3E0,1.9E1,1.28E2,4.6E1,3.1E1,2.1E1,3.7E1,3E0,1E0,1E0,1E0,8E0,8E0,2.3E1,4.5E1,1E0,2E0,1E0,2E0,1E1,9E0,3.7E1,9.1E1,2E0,4.4E1,2.3E1,8E0,4E0,1.7E1,2.5E1,1.2E1,2E0,1E0,3E0,5E0,5E0,3E0,8E0,1.5E1,1.3E1,3.2E1,3E0,7E0,2E0,7E0,3.1E1,6E0,7.1E1,2E1],"tree_param":{"num_deleted":"0","num_feature":"8","num_nodes":"75","size_leaf_vector":"1"}},{"base_weights":[-2.3447545E-2,-6.772313E-1,3.1244488E-2,-5.159651E-1,-3.5819948E-1,1.413018E-1,-1.2825453E-1,6.5326536E-1,-5.819673E-1,8.0358766E-2,8.643063E-1,-3.6045986E-1,2.3380128E-1,3.399353E-1,-4.434204E-2,2.1361543E-1,-6.822708E-1,2.051032E-1,-6.224119E-1,2.7144876E-1,1.0887095E0,-1.3107809E0,-2.1699263E-1,3.5146096E-1,-4.7198826E-1,-5.41214E-2,3.4167483E-2,-1.0112998E0,-2.5211182E-1,5.4587584E-2,7.0796585E-1,-1.5485875E-1,-1.1108114E0,-5.0148014E-2,3.9260253E-1,5.5210877E-2,1.154222E0,1.8190613E-1,-1.5401889E0,3.425404E-2,-7.0276314E-1,1.8375416E-1,7.935399E-1,1.1254883E-1,-6.550773E-1,-3.4527996E-1,-7.658997E-2,9.0898134E-2,-1.0423686E-1,1.1363705E-1,-4.2172853E-2,-2.748021E-2,3.289005E-1,2.0241395E-1,-7.4662976E-2,-4.1469195E-1,-5.587006E-3,1.6658936E-1,-3.8726807E-2,3.6691314E-1,6.990051E-2,-6.00351E-1,-2.4675293E-1,-4.2113014E-2,2.0151368E-1,-3.7912446E-1,1.2521598E-2,1.2340782E-1,-2.7464774E-1,-7.8717045E-2,3.3161235E-1,1.0670472E-2,3.9976504E-2,-2.5559542E-1,7.8955084E-2],"categories":[],"categories_nodes":[],"categories_segments":[],"categories_sizes":[],"default_left":[0,0,0,0,0,0,0,0,0,0,0,0,0,0,0,0,0,0,0,0,0,0,0,0,0,0,0,0,0,0,0,0,0,0,0,0,0,0,0,0,0,0,0,0,0,0,0,0,0,0,0,0,0,0,0,0,0,0,0,0,0,0,0,0,0,0,0,0,0,0,0,0,0,0,0],"id":8,"left_children":[1,3,5,-1,7,9,11,13,15,17,19,21,23,-1,25,-1,27,29,31,33,35,37,39,41,43,-1,-1,45,47,49,51,53,55,-1,57,-1,59,-1,61,63,65,67,69,71,73,-1,-1,-1,-1,-1,-1,-1,-1,-1,-1,-1,-1,-1,-1,-1,-1,-1,-1,-1,-1,-1,-1,-1,-1,-1,-1,-1,-1,-1,-1],"loss_changes":[1.4359622E1,9.695758E0,6.530669E0,0E0,6.038512E0,9.624203E0,1.28631115E1,1.7239873E0,3.2114992E0,1.8011673E1,1.9661369E0,1.2395183E1,5.148465E0,0E0,8.513563E-2,0E0,2.575735E0,1.3131185E1,6.9069138E0,3.8446212E-1,4.9878883E-1,6.2115726E0,1.0032026E1,3.7094445E0,1.0369289E0,0E0,0E0,8.6735725E-1,6.34539E-1,8.59505E0,1.2521503E1,1.4938273E0,4.4221115E0,0E0,4.9606717E-1,0E0,4.124298E-1,0E0,1.9932175E0,6.2168813E0,1.174707E1,1.0134172E1,4.8998957E0,4.2274594E-5,1.4899149E0,0E0,0E0,0E0,0E0,0E0,0E0,0E0,0E0,0E0,0E0,0E0,0E0,0E0,0E0,0E0,0E0,0E0,0E0,0E0,0E0,0E0,0E0,0E0,0E0,0E0,0E0,0E0,0E0,0E0,0E0],"parents":[2147483647,0,0,1,1,2,2,4,4,5,5,6,6,7,7,8,8,9,9,10,10,11,11,12,12,14,14,16,16,17,17,18,18,19,19,20,20,21,21,22,22,23,23,24,24,27,27,28,28,29,29,30,30,31,31,32,32,34,34,36,36,38,38,39,39,40,40,41,41,42,42,43,43,44,44],"right_children":[2,4,6,-1,8,10,12,14,16,18,20,22,24,-1,26,-1,28,30,32,34,36,38,40,42,44,-1,-1,46,48,50,52,54,56,-1,58,-1,60,-1,62,64,66,68,70,72,74,-1,-1,-1,-1,-1,-1,-1,-1,-1,-1,-1,-1,-1,-1,-1,-1,-1,-1,-1,-1,-1,-1,-1,-1,-1,-1,-1,-1,-1,-1],"split_conditions":[1.312E3,3.852E3,4.324E3,-5.159651E-1,4.262E3,4.502E3,1.606E3,1.31E3,3.688E3,2.458E3,4.033E3,4.261E3,2.566E3,3.399353E-1,1.298E3,2.1361543E-1,4.496E3,4.174E3,4.044E3,1.443E3,1.784E3,3.776E3,1.664E3,4.64E3,4.434E3,-5.41214E-2,3.4167483E-2,3.98E3,1.138E3,1.862E3,1.479E3,1.954E3,4.536E3,-5.0148014E-2,1.788E3,5.5210877E-2,6.125E3,1.8190613E-1,1.518E3,4.594E3,2.33E3,4.768E3,1.681E3,1.788E3,5.224E3,-3.4527996E-1,-7.658997E-2,9.0898134E-2,-1.0423686E-1,1.1363705E-1,-4.2172853E-2,-2.748021E-2,3.289005E-1,2.0241395E-1,-7.4662976E-2,-4.1469195E-1,-5.587006E-3,1.6658936E-1,-3.8726807E-2,3.6691314E-1,6.990051E-2,-6.00351E-1,-2.4675293E-1,-4.2113014E-2,2.0151368E-1,-3.7912446E-1,1.2521598E-2,1.2340782E-1,-2.7464774E-1,-7.8717045E-2,3.3161235E-1,1.0670472E-2,3.9976504E-2,-2.5559542E-1,7.8955084E-2],"split_indices":[0,4,4,0,4,6,0,1,3,2,7,7,1,0,0,0,3,7,7,0,1,7,1,3,4,0,0,5,1,2,1,1,3,0,0,0,5,0,1,5,2,7,0,0,4,0,0,0,0,0,0,0,0,0,0,0,0,0,0,0,0,0,0,0,0,0,0,0,0,0,0,0,0,0,0],"split_type":[0,0,0,0,0,0,0,0,0,0,0,0,0,0,0,0,0,0,0,0,0,0,0,0,0,0,0,0,0,0,0,0,0,0,0,0,0,0,0,0,0,0,0,0,0,0,0,0,0,0,0,0,0,0,0,0,0,0,0,0,0,0,0,0,0,0,0,0,0,0,0,0,0,0,0],"sum_hessian":[4E2,3E1,3.7E2,6E0,2.4E1,2.19E2,1.51E2,4E0,2E1,2.03E2,1.6E1,9.2E1,5.9E1,2E0,2E0,1E0,1.9E1,1.73E2,3E1,5E0,1.1E1,1.1E1,8.1E1,5.1E1,8E0,1E0,1E0,1E1,9E0,1.34E2,3.9E1,1.6E1,1.4E1,1E0,4E0,1E0,1E1,1E0,1E1,5.4E1,2.7E1,3.8E1,1.3E1,2E0,6E0,8E0,2E0,1E0,8E0,5E1,8.4E1,1.3E1,2.6E1,1E0,1.5E1,1.1E1,3E0,3E0,1E0,9E0,1E0,5E0,5E0,4.3E1,1.1E1,1.5E1,1.2E1,3.2E1,6E0,3E0,1E1,1E0,1E0,5E0,1E0],"tree_param":{"num_deleted":"0","num_feature":"8","num_nodes":"75","size_leaf_vector":"1"}},{"base_weights":[-1.8069299E-2,-1.9427998E-1,1.24885626E-1,-1.2667514E-1,-8.793125E-1,3.5456392E-1,2.898543E-3,-3.5280305E-1,-8.653335E-2,-2.383728E-1,-1.0088853E0,4.6797964E-1,-6.8214417E-1,-3.5479125E-1,9.45891E-2,7.4435425E-1,-1.2373907E-1,-8.658753E-2,-1.3142396E-2,-1.1100297E0,-3.017273E-1,4.0929335E-1,6.7760015E-1,-3.795296E-1,-7.9351805E-2,-5.2505493E-2,-1.0542908E0,5.2189577E-1,-2.1295363E-2,-1.9175211E-2,1.053601E0,-1.5177624E-1,9.6559906E-1,-7.2146606E-1,-4.8289493E-1,-1.6797638E-1,3.21991E-2,-3.350525E-1,5.1240516E-1,-9.193421E-2,5.22583E-2,-8.040161E-1,1.5916443E-1,-3.3705485E-1,-7.507324E-2,-1.392323E-1,9.719299E-1,8.2095337E-1,-8.881773E-2,2.536011E-3,-1.1164856E-2,3.1654358E-2,3.7927324E-1,-1.7358834E-1,-2.6896887E-2,3.2731935E-1,8.838043E-2,-2.5286475E-1,1.9267274E-2,1.2664261E-1,-2.3520204E-1,3.268074E-1,1.0910651E-1,-3.5773316E-1,-4.4274904E-2,-1.4817506E-1,8.150082E-2,-1.7351304E-1,2.9323198E-2,3.4014982E-1,-1.9420625E-1,-1.1273804E-1,3.2491305E-1,-1.2204173E-1,4.6388857E-2],"categories":[],"categories_nodes":[],"categories_segments":[],"categories_sizes":[],"default_left":[0,0,0,0,0,0,0,0,0,0,0,0,0,0,0,0,0,0,0,0,0,0,0,0,0,0,0,0,0,0,0,0,0,0,0,0,0,0,0,0,0,0,0,0,0,0,0,0,0,0,0,0,0,0,0,0,0,0,0,0,0,0,0,0,0,0,0,0,0,0,0,0,0,0,0],"id":9,"left_children":[1,3,5,7,9,11,13,-1,15,17,19,21,23,25,27,29,31,-1,-1,33,35,37,-1,-1,39,41,43,45,47,49,51,53,55,57,-1,-1,-1,59,61,-1,-1,63,65,-1,-1,67,69,71,73,-1,-1,-1,-1,-1,-1,-1,-1,-1,-1,-1,-1,-1,-1,-1,-1,-1,-1,-1,-1,-1,-1,-1,-1,-1,-1],"loss_changes":[1.0125527E1,8.224688E0,6.2189207E0,6.848396E0,1.0882826E0,9.372812E0,4.8218894E0,0E0,5.0383086E0,2.6465237E-2,5.9490013E-1,6.431761E0,2.7108157E0,6.288106E0,5.8047433E0,1.6730361E0,4.8500175E0,0E0,0E0,9.741678E-1,3.7694514E-1,5.46749E0,0E0,0E0,3.4127736E-1,3.627559E0,2.197895E-1,7.5735793E0,5.3618836E0,1.8099417E-3,8.651433E-1,3.9520376E0,1.5318632E-2,8.172984E-1,0E0,0E0,0E0,3.3904734E0,4.8377686E0,0E0,0E0,1.0989001E0,1.45673E0,0E0,0E0,1.2012678E0,4.6664896E0,2.6025891E0,6.797861E0,0E0,0E0,0E0,0E0,0E0,0E0,0E0,0E0,0E0,0E0,0E0,0E0,0E0,0E0,0E0,0E0,0E0,0E0,0E0,0E0,0E0,0E0,0E0,0E0,0E0,0E0],"parents":[2147483647,0,0,1,1,2,2,3,3,4,4,5,5,6,6,8,8,9,9,10,10,11,11,12,12,13,13,14,14,15,15,16,16,19,19,20,20,21,21,24,24,25,25,26,26,27,27,28,28,29,29,30,30,31,31,32,32,33,33,37,37,38,38,41,41,42,42,45,45,46,46,47,47,48,48],"right_children":[2,4,6,8,10,12,14,-1,16,18,20,22,24,26,28,30,32,-1,-1,34,36,38,-1,-1,40,42,44,46,48,50,52,54,56,58,-1,-1,-1,60,62,-1,-1,64,66,-1,-1,68,70,72,74,-1,-1,-1,-1,-1,-1,-1,-1,-1,-1,-1,-1,-1,-1,-1,-1,-1,-1,-1,-1,-1,-1,-1,-1,-1,-1],"split_conditions":[3.509E3,4.833E3,4.017E3,2.091E3,1.22E3,4.291E3,4.174E3,-3.5280305E-1,1.539E3,1.285E3,5.127E3,4.001E3,1.503E3,4.134E3,2.174E3,1.198E3,5.212E3,-8.658753E-2,-1.3142396E-2,5.052E3,1.248E3,4.192E3,6.7760015E-1,-3.795296E-1,4.264E3,1.496E3,4.078E3,2.08E3,4.133E3,1.239E3,2.638E3,1.647E3,1.332E3,4.989E3,-4.8289493E-1,-1.6797638E-1,3.21991E-2,1.98E3,4.426E3,-9.193421E-2,5.22583E-2,2.134E3,4.474E3,-3.3705485E-1,-7.507324E-2,4.33E3,1.778E3,4.828E3,1.647E3,2.536011E-3,-1.1164856E-2,3.1654358E-2,3.7927324E-1,-1.7358834E-1,-2.6896887E-2,3.2731935E-1,8.838043E-2,-2.5286475E-1,1.9267274E-2,1.2664261E-1,-2.3520204E-1,3.268074E-1,1.0910651E-1,-3.5773316E-1,-4.4274904E-2,-1.4817506E-1,8.150082E-2,-1.7351304E-1,2.9323198E-2,3.4014982E-1,-1.9420625E-1,-1.1273804E-1,3.2491305E-1,-1.2204173E-1,4.6388857E-2],"split_indices":[6,4,4,7,0,7,7,0,2,1,4,4,0,7,2,1,3,0,0,4,0,5,0,0,3,0,3,2,4,0,5,2,0,4,0,0,0,2,5,0,0,2,5,0,0,7,1,5,0,0,0,0,0,0,0,0,0,0,0,0,0,0,0,0,0,0,0,0,0,0,0,0,0,0,0],"split_type":[0,0,0,0,0,0,0,0,0,0,0,0,0,0,0,0,0,0,0,0,0,0,0,0,0,0,0,0,0,0,0,0,0,0,0,0,0,0,0,0,0,0,0,0,0,0,0,0,0,0,0,0,0,0,0,0,0,0,0,0,0,0,0,0,0,0,0,0,0,0,0,0,0,0,0],"sum_hessian":[4E2,1.79E2,2.21E2,1.64E2,1.5E1,7.6E1,1.45E2,5E0,1.59E2,3E0,1.2E1,6.9E1,7E0,2.9E1,1.16E2,6E0,1.53E2,2E0,1E0,1E1,2E0,6.8E1,1E0,3E0,4E0,2.1E1,8E0,2.4E1,9.2E1,2E0,4E0,1.5E2,3E0,7E0,3E0,1E0,1E0,8E0,6E1,2E0,2E0,4E0,1.7E1,7E0,1E0,1E1,1.4E1,6E0,8.6E1,1E0,1E0,1E0,3E0,1.8E1,1.32E2,2E0,1E0,6E0,1E0,3E0,5E0,1.1E1,4.9E1,2E0,2E0,2E0,1.5E1,3E0,7E0,1.3E1,1E0,1E0,5E0,3.7E1,4.9E1],"tree_param":{"num_deleted":"0","num_feature":"8","num_nodes":"75","size_leaf_vector":"1"}},{"base_weights":[-1.4756657E-2,-1.5869908E-1,7.563133E-2,-5.92031E-2,-5.1104647E-1,1.2654477E-1,-2.0772271E-1,-1.4154024E-1,5.375712E-1,-7.2870004E-1,-5.1289875E-2,8.224007E-2,7.409363E-1,-3.3388367E-1,-1.5317762E-1,-5.2041286E-1,-1.5063402E-2,2.876984E-1,2.3096009E-1,-3.9023262E-1,-1.1296844E0,2.8067452E-1,-4.3003336E-1,1.448236E-1,-4.2216632E-1,2.6276398E-1,8.4745926E-1,-5.144145E-1,-3.578765E-2,-2.32449E-1,-9.8670655E-1,2.878886E-1,-1.8626145E-1,5.659485E-1,-1.23902895E-1,-8.2025826E-1,3.1984457E-1,-1.261322E-1,-3.763321E-1,-1.2405396E-1,4.6529135E-1,-3.4576416E-2,-1.8573533E-1,1.2385524E-1,3.9381412E-1,-1.000828E0,7.1559525E-1,1.06146246E-1,-1.5609742E-3,5.328631E-1,3.3552065E-1,-6.7018783E-1,6.158448E-3,1.9458821E-1,-2.6377767E-1,-1.68174E-1,1.08980455E-1,-4.419931E-1,3.345795E-2,3.2382202E-1,1.8310548E-5,-1.6785854E-1,5.8171254E-2,1.8607484E-1,3.6021426E-2,-5.5541995E-4,-3.161473E-1,-5.690003E-2,2.6777345E-1,2.917328E-2,1.5583558E-1,2.8656008E-2,-4.4215396E-2,5.2130662E-2,-8.075043E-2,-1.13698326E-1,-4.9720594E-1,2.8645784E-1,-4.3945314E-4,7.079315E-2,3.4712678E-1,-2.3918702E-1,-7.0486456E-2,-9.15413E-3,1.1861E-1,-1.3378602E-1,2.5143433E-2],"categories":[],"categories_nodes":[],"categories_segments":[],"categories_sizes":[],"default_left":[0,0,0,0,0,0,0,0,0,0,0,0,0,0,0,0,0,0,0,0,0,0,0,0,0,0,0,0,0,0,0,0,0,0,0,0,0,0,0,0,0,0,0,0,0,0,0,0,0,0,0,0,0,0,0,0,0,0,0,0,0,0,0,0,0,0,0,0,0,0,0,0,0,0,0,0,0,0,0,0,0,0,0,0,0,0,0],"id":10,"left_children":[1,3,5,7,9,11,13,15,17,19,21,23,25,-1,27,29,31,-1,33,35,37,39,41,43,45,47,49,51,53,55,57,59,61,63,-1,65,67,-1,-1,-1,69,71,-1,73,-1,75,77,-1,-1,79,-1,81,-1,83,85,-1,-1,-1,-1,-1,-1,-1,-1,-1,-1,-1,-1,-1,-1,-1,-1,-1,-1,-1,-1,-1,-1,-1,-1,-1,-1,-1,-1,-1,-1,-1,-1],"loss_changes":[5.22928E0,5.4036016E0,3.5896392E0,6.0707645E0,3.3649263E0,5.655356E0,1.7057893E0,5.1673703E0,1.7167068E0,2.6807232E0,1.6294518E0,6.2799425E0,4.904275E-1,0E0,1.550597E0,3.3960862E0,4.3065357E0,0E0,2.3909662E0,4.5372744E0,3.574047E-1,1.0895152E0,4.2724144E-1,4.1474304E0,1.5200527E1,9.9441975E-2,3.4165907E-1,7.63726E-1,1.5745065E0,3.722159E0,5.508355E0,6.834556E0,7.6293697E0,9.5006704E-2,0E0,1.7184176E0,1.9201778E0,0E0,0E0,0E0,6.90881E-2,5.8106028E-2,0E0,3.4601686E0,0E0,5.495612E0,1.3739333E0,0E0,0E0,1.0242211E0,0E0,1.9990635E-1,0E0,6.899985E-1,9.872104E-1,0E0,0E0,0E0,0E0,0E0,0E0,0E0,0E0,0E0,0E0,0E0,0E0,0E0,0E0,0E0,0E0,0E0,0E0,0E0,0E0,0E0,0E0,0E0,0E0,0E0,0E0,0E0,0E0,0E0,0E0,0E0,0E0],"parents":[2147483647,0,0,1,1,2,2,3,3,4,4,5,5,6,6,7,7,8,8,9,9,10,10,11,11,12,12,14,14,15,15,16,16,18,18,19,19,20,20,21,21,22,22,23,23,24,24,25,25,26,26,27,27,28,28,29,29,30,30,31,31,32,32,33,33,35,35,36,36,40,40,41,41,43,43,45,45,46,46,49,49,51,51,53,53,54,54],"right_children":[2,4,6,8,10,12,14,16,18,20,22,24,26,-1,28,30,32,-1,34,36,38,40,42,44,46,48,50,52,54,56,58,60,62,64,-1,66,68,-1,-1,-1,70,72,-1,74,-1,76,78,-1,-1,80,-1,82,-1,84,86,-1,-1,-1,-1,-1,-1,-1,-1,-1,-1,-1,-1,-1,-1,-1,-1,-1,-1,-1,-1,-1,-1,-1,-1,-1,-1,-1,-1,-1,-1,-1,-1],"split_conditions":[3.417E3,1.544E3,2.214E3,1.534E3,1.59E3,4.949E3,2.226E3,1.647E3,3.673E3,3.214E3,1.709E3,4.532E3,1.652E3,-3.3388367E-1,2.802E3,1.29E3,1.358E3,2.876984E-1,1.606E3,4.017E3,1.947E3,2.554E3,3.42E3,4.484E3,4.862E3,1.954E3,5.221E3,4.841E3,3.194E3,1.296E3,1.385E3,4.332E3,3.073E3,1.458E3,-1.23902895E-1,3.565E3,3.109E3,-1.261322E-1,-3.763321E-1,-1.2405396E-1,1.56E3,1.832E3,-1.8573533E-1,1.733E3,3.9381412E-1,4.711E3,5.052E3,1.06146246E-1,-1.5609742E-3,1.899E3,3.3552065E-1,2.029E3,6.158448E-3,3.026E3,3.164E3,-1.68174E-1,1.08980455E-1,-4.419931E-1,3.345795E-2,3.2382202E-1,1.8310548E-5,-1.6785854E-1,5.8171254E-2,1.8607484E-1,3.6021426E-2,-5.5541995E-4,-3.161473E-1,-5.690003E-2,2.6777345E-1,2.917328E-2,1.5583558E-1,2.8656008E-2,-4.4215396E-2,5.2130662E-2,-8.075043E-2,-1.13698326E-1,-4.9720594E-1,2.8645784E-1,-4.3945314E-4,7.079315E-2,3.4712678E-1,-2.3918702E-1,-7.0486456E-2,-9.15413E-3,1.1861E-1,-1.3378602E-1,2.5143433E-2],"split_indices":[6,1,1,0,0,6,1,2,7,6,0,3,0,0,2,1,1,0,0,4,2,3,3,3,7,1,6,5,2,0,1,4,6,1,0,5,6,0,0,0,1,0,0,0,0,7,3,0,0,0,0,0,0,2,1,0,0,0,0,0,0,0,0,0,0,0,0,0,0,0,0,0,0,0,0,0,0,0,0,0,0,0,0,0,0,0,0],"split_type":[0,0,0,0,0,0,0,0,0,0,0,0,0,0,0,0,0,0,0,0,0,0,0,0,0,0,0,0,0,0,0,0,0,0,0,0,0,0,0,0,0,0,0,0,0,0,0,0,0,0,0,0,0,0,0,0,0,0,0,0,0,0,0,0,0,0,0,0,0,0,0,0,0,0,0,0,0,0,0,0,0,0,0,0,0,0,0],"sum_hessian":[4E2,1.54E2,2.46E2,1.21E2,3.3E1,2.09E2,3.7E1,1.07E2,1.4E1,2.2E1,1.1E1,1.96E2,1.3E1,1E0,3.6E1,2.6E1,8.1E1,5E0,9E0,1.3E1,9E0,6E0,5E0,1.75E2,2.1E1,3E0,1E1,8E0,2.8E1,1.7E1,9E0,2.9E1,5.2E1,6E0,3E0,8E0,5E0,2E0,7E0,1E0,5E0,2E0,3E0,1.73E2,2E0,1.4E1,7E0,2E0,1E0,6E0,4E0,6E0,2E0,1.4E1,1.4E1,1.1E1,6E0,6E0,3E0,7E0,2.2E1,2.6E1,2.6E1,5E0,1E0,2E0,6E0,3E0,2E0,1E0,4E0,1E0,1E0,1.54E2,1.9E1,8E0,6E0,5E0,2E0,5E0,1E0,4E0,2E0,7E0,7E0,9E0,5E0],"tree_param":{"num_deleted":"0","num_feature":"8","num_nodes":"87","size_leaf_vector":"1"}},{"base_weights":[-1.1211671E-2,-7.492574E-1,-8.477105E-7,-3.1264648E-1,-3.422699E-1,5.6386673E-1,-2.0612193E-2,-1.2744141E-2,-1.2841187E-1,9.8760986E-1,1.22608185E-1,-3.9640725E-1,1.8322386E-2,4.0253603E-1,1.7327453E-1,-1.3825989E-1,6.034749E-1,-2.2055732E-2,-7.301925E-1,7.0709634E-1,-1.2665435E-2,6.7242436E-2,-1.1264878E-1,4.3725587E-2,2.2783814E-1,-3.6672464E-1,5.719561E-1,4.0249634E-1,-8.8712627E-1,1.4280008E-1,1.8071289E0,-6.5518E-1,1.9600704E-2,-2.0169592E-1,1.52771E-2,2.7467042E-1,7.5419314E-2,1.7521821E-1,5.905152E-3,-3.2570007E-1,1.2038574E-1,1.3840485E-1,-1.5899964E-1,8.291016E-2,6.362183E-1,-2.4590713E-1,1.29821785E-2,8.2319915E-2,-1.4769709E-2],"categories":[],"categories_nodes":[],"categories_segments":[],"categories_sizes":[],"default_left":[0,0,0,0,0,0,0,0,0,0,0,0,0,0,0,0,0,0,0,0,0,0,0,0,0,0,0,0,0,0,0,0,0,0,0,0,0,0,0,0,0,0,0,0,0,0,0,0,0],"id":11,"left_children":[1,3,5,-1,7,9,11,-1,-1,13,15,17,19,-1,-1,21,23,25,27,29,31,-1,-1,-1,-1,33,35,37,39,41,43,45,47,-1,-1,-1,-1,-1,-1,-1,-1,-1,-1,-1,-1,-1,-1,-1,-1],"loss_changes":[3.3179135E0,3.5853577E-1,4.613962E0,0E0,8.466804E-2,2.496635E0,5.6110973E0,0E0,0E0,2.4156523E-1,1.0869787E0,4.4822035E0,7.4365296E0,0E0,0E0,6.000121E-1,1.0350168E-1,3.8950238E0,3.7344513E0,9.053106E0,6.9371505E0,0E0,0E0,0E0,0E0,1.5658122E0,5.408623E-1,1.9701871E-1,4.7843E0,2.6020312E0,1.8141232E0,1.8739185E0,5.6083217E0,0E0,0E0,0E0,0E0,0E0,0E0,0E0,0E0,0E0,0E0,0E0,0E0,0E0,0E0,0E0,0E0],"parents":[2147483647,0,0,1,1,2,2,4,4,5,5,6,6,9,9,10,10,11,11,12,12,15,15,16,16,17,17,18,18,19,19,20,20,25,25,26,26,27,27,28,28,29,29,30,30,31,31,32,32],"right_children":[2,4,6,-1,8,10,12,-1,-1,14,16,18,20,-1,-1,22,24,26,28,30,32,-1,-1,-1,-1,34,36,38,40,42,44,46,48,-1,-1,-1,-1,-1,-1,-1,-1,-1,-1,-1,-1,-1,-1,-1,-1],"split_conditions":[2.091E3,1.069E3,3.03E3,-3.1264648E-1,1.084E3,1.467E3,3.288E3,-1.2744141E-2,-1.2841187E-1,1.353E3,2.78E3,4.091E3,3.49E3,4.0253603E-1,1.7327453E-1,1.478E3,1.598E3,3.977E3,3.165E3,3.663E3,3.631E3,6.7242436E-2,-1.1264878E-1,4.3725587E-2,2.2783814E-1,3.497E3,1.385E3,1.56E3,1.699E3,3.535E3,1.49E3,1.584E3,4.019E3,-2.0169592E-1,1.52771E-2,2.7467042E-1,7.5419314E-2,1.7521821E-1,5.905152E-3,-3.2570007E-1,1.2038574E-1,1.3840485E-1,-1.5899964E-1,8.291016E-2,6.362183E-1,-2.4590713E-1,1.29821785E-2,8.2319915E-2,-1.4769709E-2],"split_indices":[7,1,7,0,0,1,3,0,0,1,3,5,7,0,0,0,0,5,4,6,4,0,0,0,0,4,0,0,0,4,0,0,4,0,0,0,0,0,0,0,0,0,0,0,0,0,0,0,0],"split_type":[0,0,0,0,0,0,0,0,0,0,0,0,0,0,0,0,0,0,0,0,0,0,0,0,0,0,0,0,0,0,0,0,0,0,0,0,0,0,0,0,0,0,0,0,0,0,0,0,0],"sum_hessian":[4E2,5E0,3.95E2,2E0,3E0,1.3E1,3.82E2,1E0,2E0,6E0,7E0,3.5E1,3.47E2,2E0,4E0,5E0,2E0,1.7E1,1.8E1,1.4E1,3.33E2,2E0,3E0,1E0,1E0,1.1E1,6E0,2E0,1.6E1,1E1,4E0,1.5E1,3.18E2,6E0,5E0,2E0,4E0,1E0,1E0,1.4E1,2E0,7E0,3E0,1E0,3E0,1.2E1,3E0,6.7E1,2.51E2],"tree_param":{"num_deleted":"0","num_feature":"8","num_nodes":"49","size_leaf_vector":"1"}},{"base_weights":[-5.2990997E-3,2.053012E-2,-2.8470656E-1,-1.3468802E-2,6.457455E-1,-9.527626E-1,-7.621935E-2,-4.004313E-1,1.1196899E-2,3.342682E-1,4.88266E-1,-1.1087646E0,2.0887757E-2,-4.4004312E-1,3.4944037E-1,-5.598378E-1,2.2163697E-1,5.3102493E-1,-1.524261E-2,-1.5877992E-1,5.913859E-1,-7.357178E-2,-3.6354372E-1,-1.7344835E-1,-7.1994454E-1,5.471985E-1,-2.3231506E-1,-8.3987427E-1,-3.3073843E-1,4.2614746E-1,-1.7025758E-2,6.7651165E-1,-2.4769135E-1,-1.4452074E-1,6.613458E-2,6.9524676E-1,-5.5806477E-2,-6.0078938E-2,-9.0042114E-2,-3.3010483E-1,-1.5955353E-1,1.4986572E-1,7.871094E-1,3.6273196E-2,-1.1710816E-1,-1.4838685E-1,-3.406006E-1,5.3911746E-2,-1.9442794E-1,4.0338136E-2,1.5142822E-1,2.4108844E-1,-1.6546784E-1,6.6369004E-3,-1.0437761E-1,1.6011038E-1,-3.7967523E-3,2.6060143E-1,1.0444184E-1,-3.5696413E-2,1.0583497E-2,-3.3000186E-2,7.952881E-3,-1.1533814E-1,1.3070679E-2,1.43676E-1,-1.749527E-1,2.9696274E-1,7.631531E-2],"categories":[],"categories_nodes":[],"categories_segments":[],"categories_sizes":[],"default_left":[0,0,0,0,0,0,0,0,0,0,0,0,0,0,0,0,0,0,0,0,0,0,0,0,0,0,0,0,0,0,0,0,0,0,0,0,0,0,0,0,0,0,0,0,0,0,0,0,0,0,0,0,0,0,0,0,0,0,0,0,0,0,0,0,0,0,0,0,0],"id":12,"left_children":[1,3,5,7,9,11,13,15,17,-1,19,21,-1,23,25,27,29,31,33,-1,35,-1,-1,37,39,41,43,45,47,49,-1,51,-1,53,55,57,59,61,-1,-1,63,65,67,-1,-1,-1,-1,-1,-1,-1,-1,-1,-1,-1,-1,-1,-1,-1,-1,-1,-1,-1,-1,-1,-1,-1,-1,-1,-1],"loss_changes":[2.8998127E0,7.8311453E0,4.66294E0,3.3451293E0,8.5771036E-1,1.3531561E0,4.335127E0,2.2064767E0,4.543614E0,0E0,1.9918461E0,3.2570648E-1,0E0,9.94431E-1,1.6227316E0,8.128762E-1,3.0885285E-1,3.7165756E0,3.3234496E0,0E0,1.0470691E0,0E0,0E0,1.1123487E-1,1.3166637E0,8.35284E-1,2.705016E-1,1.5249586E-1,1.8983763E0,9.21011E-4,0E0,2.7848692E0,0E0,4.143022E0,7.15367E0,4.8014164E-1,2.1462336E-2,2.885194E-2,0E0,0E0,1.994851E-1,1.4853463E0,3.9630365E-1,0E0,0E0,0E0,0E0,0E0,0E0,0E0,0E0,0E0,0E0,0E0,0E0,0E0,0E0,0E0,0E0,0E0,0E0,0E0,0E0,0E0,0E0,0E0,0E0,0E0,0E0],"parents":[2147483647,0,0,1,1,2,2,3,3,4,4,5,5,6,6,7,7,8,8,10,10,11,11,13,13,14,14,15,15,16,16,17,17,18,18,20,20,23,23,24,24,25,25,26,26,27,27,28,28,29,29,31,31,33,33,34,34,35,35,36,36,37,37,40,40,41,41,42,42],"right_children":[2,4,6,8,10,12,14,16,18,-1,20,22,-1,24,26,28,30,32,34,-1,36,-1,-1,38,40,42,44,46,48,50,-1,52,-1,54,56,58,60,62,-1,-1,64,66,68,-1,-1,-1,-1,-1,-1,-1,-1,-1,-1,-1,-1,-1,-1,-1,-1,-1,-1,-1,-1,-1,-1,-1,-1,-1,-1],"split_conditions":[4.833E3,4.691E3,4.871E3,1.312E3,4.57E3,1.647E3,3.752E3,4.508E3,1.356E3,3.342682E-1,4.372E3,1.207E3,2.0887757E-2,5.052E3,5.108E3,3.852E3,4.361E3,4.433E3,1.99E3,-1.5877992E-1,1.686E3,-7.357178E-2,-3.6354372E-1,1.376E3,5.127E3,2.384E3,1.84E3,1.239E3,4.132E3,1.234E3,-1.7025758E-2,1.544E3,-2.4769135E-1,1.846E3,1.664E3,4.783E3,1.708E3,1.288E3,-9.0042114E-2,-3.3010483E-1,1.248E3,1.86E3,2.058E3,3.6273196E-2,-1.1710816E-1,-1.4838685E-1,-3.406006E-1,5.3911746E-2,-1.9442794E-1,4.0338136E-2,1.5142822E-1,2.4108844E-1,-1.6546784E-1,6.6369004E-3,-1.0437761E-1,1.6011038E-1,-3.7967523E-3,2.6060143E-1,1.0444184E-1,-3.5696413E-2,1.0583497E-2,-3.3000186E-2,7.952881E-3,-1.1533814E-1,1.3070679E-2,1.43676E-1,-1.749527E-1,2.9696274E-1,7.631531E-2],"split_indices":[4,4,4,0,7,0,6,3,0,0,3,0,0,4,3,4,4,4,2,0,0,0,0,0,4,2,0,0,3,0,0,1,0,2,1,4,0,0,0,0,0,1,1,0,0,0,0,0,0,0,0,0,0,0,0,0,0,0,0,0,0,0,0,0,0,0,0,0,0],"split_type":[0,0,0,0,0,0,0,0,0,0,0,0,0,0,0,0,0,0,0,0,0,0,0,0,0,0,0,0,0,0,0,0,0,0,0,0,0,0,0,0,0,0,0,0,0,0,0,0,0,0,0,0,0,0,0,0,0,0,0,0,0,0,0,0,0,0,0,0,0],"sum_hessian":[4E2,3.67E2,3.3E1,3.49E2,1.8E1,7E0,2.6E1,2E1,3.29E2,3E0,1.5E1,6E0,1E0,1.4E1,1.2E1,1.6E1,4E0,1.5E1,3.14E2,1E0,1.4E1,1E0,5E0,8E0,6E0,9E0,3E0,6E0,1E1,2E0,2E0,1.4E1,1E0,1.21E2,1.93E2,1.2E1,2E0,5E0,3E0,3E0,3E0,4E0,5E0,1E0,2E0,4E0,2E0,4E0,6E0,1E0,1E0,1.3E1,1E0,6.7E1,5.4E1,2.7E1,1.66E2,7E0,5E0,1E0,1E0,3E0,2E0,1E0,2E0,3E0,1E0,3E0,2E0],"tree_param":{"num_deleted":"0","num_feature":"8","num_nodes":"69","size_leaf_vector":"1"}},{"base_weights":[-5.595828E-3,-1.79249E-1,2.3110917E-2,-4.6335474E-1,2.6568245E-2,9.949609E-2,-7.923621E-2,-9.944831E-2,-1.3329207E0,4.098581E-1,-2.0112887E-1,1.702406E-1,-1.9328895E-1,-1.0528303E0,-3.0684136E-2,-4.048699E-1,1.8537597E-1,-2.2668459E-2,-4.5896608E-1,8.9143676E-1,9.677463E-2,-6.7719865E-1,1.1928231E-1,4.8947908E-2,5.2109134E-1,-3.9619792E-1,5.270962E-1,8.631134E-2,-3.9726105E-1,-1.817524E-1,1.6163562E-1,-2.2044069E-1,-2.056318E-1,1.585373E-1,-3.7152972E-2,3.2420197E-1,2.0173647E-2,-6.8911746E-2,2.2286987E-1,-2.390455E-1,-1.723531E-1,2.6246947E-1,-1.9094849E-1,-4.0504658E-3,7.914314E-1,9.888423E-1,2.9344124E-1,-3.3593446E-1,-2.4752694E-1,2.832779E-1,3.5691833E-1,-1.0472462E-1,-8.619118E-1,6.1395264E-1,-3.293457E-2,1.1425782E-2,-7.577973E-2,-1.13211066E-1,5.232239E-2,2.9246522E-2,8.7760165E-2,-9.803925E-2,2.0480348E-2,-5.497742E-3,1.1562849E-1,4.2663575E-3,-7.3738866E-2,3.0745177E-2,-1.09341785E-1,3.9145386E-1,-1.4458466E-2,3.2943192E-1,-4.8349E-2,-2.950956E-2,1.72739E-1,-2.2162057E-2,-1.3753128E-1,6.4361575E-3,1.205331E-1,1.6544038E-1,-4.2217582E-2,-1.07987985E-1,-4.735535E-1,2.7699614E-1,5.028585E-2,8.158003E-2,-8.631189E-2],"categories":[],"categories_nodes":[],"categories_segments":[],"categories_sizes":[],"default_left":[0,0,0,0,0,0,0,0,0,0,0,0,0,0,0,0,0,0,0,0,0,0,0,0,0,0,0,0,0,0,0,0,0,0,0,0,0,0,0,0,0,0,0,0,0,0,0,0,0,0,0,0,0,0,0,0,0,0,0,0,0,0,0,0,0,0,0,0,0,0,0,0,0,0,0,0,0,0,0,0,0,0,0,0,0,0,0],"id":13,"left_children":[1,3,5,7,9,11,13,15,17,19,21,23,25,27,29,31,33,-1,-1,35,37,39,41,43,45,47,49,-1,-1,51,53,-1,55,-1,57,-1,-1,-1,59,-1,61,63,65,67,69,71,73,-1,75,-1,77,79,81,83,85,-1,-1,-1,-1,-1,-1,-1,-1,-1,-1,-1,-1,-1,-1,-1,-1,-1,-1,-1,-1,-1,-1,-1,-1,-1,-1,-1,-1,-1,-1,-1,-1],"loss_changes":[2.0031347E0,3.3453207E0,2.705026E0,7.4620185E0,3.0497503E0,4.134066E0,6.963657E0,1.6409E0,1.618001E0,1.8737979E0,3.4366155E0,6.783395E0,5.909566E0,2.9274755E0,4.1549625E0,4.4051707E-1,7.830898E-1,0E0,0E0,7.071643E-1,4.2170313E-1,4.0617085E-1,6.720131E-1,4.725256E0,4.0756598E0,3.0576758E0,3.019042E-1,0E0,0E0,4.1010294E0,5.564687E0,0E0,8.974776E-2,0E0,5.696531E-1,0E0,0E0,0E0,3.262338E-2,0E0,1.337974E-1,3.5232592E-1,5.9760958E-2,4.3762536E0,3.511499E0,1.8104811E0,3.2648704E0,0E0,9.550184E-1,0E0,1.11768246E-1,1.8021106E0,2.3093882E0,2.4687748E0,3.5734653E0,0E0,0E0,0E0,0E0,0E0,0E0,0E0,0E0,0E0,0E0,0E0,0E0,0E0,0E0,0E0,0E0,0E0,0E0,0E0,0E0,0E0,0E0,0E0,0E0,0E0,0E0,0E0,0E0,0E0,0E0,0E0,0E0],"parents":[2147483647,0,0,1,1,2,2,3,3,4,4,5,5,6,6,7,7,8,8,9,9,10,10,11,11,12,12,13,13,14,14,15,15,16,16,19,19,20,20,21,21,22,22,23,23,24,24,25,25,26,26,29,29,30,30,32,32,34,34,38,38,40,40,41,41,42,42,43,43,44,44,45,45,46,46,48,48,50,50,51,51,52,52,53,53,54,54],"right_children":[2,4,6,8,10,12,14,16,18,20,22,24,26,28,30,32,34,-1,-1,36,38,40,42,44,46,48,50,-1,-1,52,54,-1,56,-1,58,-1,-1,-1,60,-1,62,64,66,68,70,72,74,-1,76,-1,78,80,82,84,86,-1,-1,-1,-1,-1,-1,-1,-1,-1,-1,-1,-1,-1,-1,-1,-1,-1,-1,-1,-1,-1,-1,-1,-1,-1,-1,-1,-1,-1,-1,-1,-1],"split_conditions":[3.696E3,3.824E3,4.324E3,3.498E3,4.373E3,2.458E3,4.336E3,3.038E3,1.298E3,1.349E3,4.5E3,4.174E3,4.71E3,1.388E3,3.907E3,1.069E3,2.964E3,-2.2668459E-2,-4.5896608E-1,3.868E3,1.306E3,4.655E3,4.833E3,1.896E3,4.245E3,1.504E3,3.778E3,8.631134E-2,-3.9726105E-1,3.809E3,5.362E3,-2.2044069E-1,1.084E3,1.585373E-1,3.178E3,3.2420197E-1,2.0173647E-2,-6.8911746E-2,4.072E3,-2.390455E-1,1.248E3,4.426E3,1.196E3,4.003E3,3.829E3,1.896E3,4.108E3,-3.3593446E-1,4.044E3,2.832779E-1,3.92E3,4.361E3,4.509E3,4.202E3,4.532E3,1.1425782E-2,-7.577973E-2,-1.13211066E-1,5.232239E-2,2.9246522E-2,8.7760165E-2,-9.803925E-2,2.0480348E-2,-5.497742E-3,1.1562849E-1,4.2663575E-3,-7.3738866E-2,3.0745177E-2,-1.09341785E-1,3.9145386E-1,-1.4458466E-2,3.2943192E-1,-4.8349E-2,-2.950956E-2,1.72739E-1,-2.2162057E-2,-1.3753128E-1,6.4361575E-3,1.205331E-1,1.6544038E-1,-4.2217582E-2,-1.07987985E-1,-4.735535E-1,2.7699614E-1,5.028585E-2,8.158003E-2,-8.631189E-2],"split_indices":[5,7,4,7,7,2,4,5,0,0,3,7,6,0,6,1,3,0,0,3,1,7,4,1,7,0,3,0,0,6,5,0,0,0,4,0,0,0,7,0,0,4,1,7,6,1,3,0,7,0,3,4,4,6,3,0,0,0,0,0,0,0,0,0,0,0,0,0,0,0,0,0,0,0,0,0,0,0,0,0,0,0,0,0,0,0,0],"split_type":[0,0,0,0,0,0,0,0,0,0,0,0,0,0,0,0,0,0,0,0,0,0,0,0,0,0,0,0,0,0,0,0,0,0,0,0,0,0,0,0,0,0,0,0,0,0,0,0,0,0,0,0,0,0,0,0,0,0,0,0,0,0,0,0,0,0,0,0,0,0,0,0,0,0,0,0,0,0,0,0,0,0,0,0,0,0,0],"sum_hessian":[4E2,5.6E1,3.44E2,2.3E1,3.3E1,1.97E2,1.47E2,1.7E1,6E0,1.2E1,2.1E1,1.59E2,3.8E1,6E0,1.41E2,8E0,9E0,1E0,5E0,4E0,8E0,8E0,1.3E1,1.19E2,4E1,3E1,8E0,1E0,5E0,7.9E1,6.2E1,2E0,6E0,3E0,6E0,3E0,1E0,2E0,6E0,6E0,2E0,9E0,4E0,1.12E2,7E0,1.2E1,2.8E1,4E0,2.6E1,1E0,7E0,7.2E1,7E0,1.8E1,4.4E1,1E0,5E0,2E0,4E0,3E0,3E0,1E0,1E0,3E0,6E0,1E0,3E0,8.7E1,2.5E1,4E0,3E0,1.1E1,1E0,1.2E1,1.6E1,1.5E1,1.1E1,1E0,6E0,3E0,6.9E1,5E0,2E0,1E1,8E0,2E1,2.4E1],"tree_param":{"num_deleted":"0","num_feature":"8","num_nodes":"87","size_leaf_vector":"1"}},{"base_weights":[-4.818429E-3,-2.7217623E-2,1.9252126E-1,-2.346607E-3,-2.7434933E-1,2.653945E-1,-5.4790497E-1,-3.210655E-2,2.6556396E-1,-4.9967226E-1,2.217213E-1,-2.1550903E-1,3.283099E-1,-2.4834596E-1,4.3775942E-2,-2.3248311E-2,-3.9812165E-1,7.2547495E-1,3.406027E-2,-6.665746E-1,2.3449096E-1,-8.3611384E-2,3.1914368E-1,6.5849304E-2,-3.7913513E-1,4.488512E-1,6.991323E-2,-1.1139653E-2,-5.215716E-1,1.0161525E0,1.734314E-1,-4.9785867E-1,2.0947435E-1,-4.1242763E-1,-1.1484884E0,1.59729E-1,-1.4161174E-1,2.30399E-1,-2.3652956E-1,-4.4735722E-2,-1.603775E-1,-9.839631E-2,4.990706E-1,-2.0819528E-1,3.8272095E-1,2.9900433E-3,-6.775043E-2,-2.4633409E-1,-2.7490998E-2,6.638947E-2,3.3352357E-1,1.5811157E-1,-1.4019013E-2,-2.491379E-1,3.346863E-2,2.1067749E-1,5.5552893E-3,-3.473002E-2,-2.3660432E-1,-3.7460816E-1,-9.7119145E-2,-7.41806E-2,1.0455322E-2,2.1444703E-2,1.7758484E-1,1.8174204E-1,9.312195E-2,6.2560275E-2,-1.718628E-1,1.5087433E-1,2.8466797E-2],"categories":[],"categories_nodes":[],"categories_segments":[],"categories_sizes":[],"default_left":[0,0,0,0,0,0,0,0,0,0,0,0,0,0,0,0,0,0,0,0,0,0,0,0,0,0,0,0,0,0,0,0,0,0,0,0,0,0,0,0,0,0,0,0,0,0,0,0,0,0,0,0,0,0,0,0,0,0,0,0,0,0,0,0,0,0,0,0,0,0,0],"id":14,"left_children":[1,3,5,7,9,11,13,15,17,19,21,23,25,-1,-1,27,-1,29,31,33,35,37,-1,-1,39,41,43,45,47,49,51,53,55,57,59,-1,61,63,-1,-1,-1,-1,65,67,69,-1,-1,-1,-1,-1,-1,-1,-1,-1,-1,-1,-1,-1,-1,-1,-1,-1,-1,-1,-1,-1,-1,-1,-1,-1,-1],"loss_changes":[1.77776E0,2.2182128E0,2.3576593E0,2.631644E0,3.7993994E0,1.2204905E0,8.976426E-1,3.3760674E0,3.4888368E0,2.974576E0,2.9172435E0,4.391116E-1,1.0276334E0,0E0,0E0,1.7802618E0,0E0,1.5889001E0,2.2503283E0,1.8533945E0,6.356768E-1,2.1735425E0,0E0,0E0,6.331217E-2,1.0609736E0,1.1236145E0,1.3163728E0,8.262409E-1,2.8584862E-1,4.1388184E-1,1.3088111E0,1.6808032E0,1.4713721E0,9.163141E-2,0E0,6.4551145E-2,3.5988083E-1,0E0,0E0,0E0,0E0,2.549739E-1,1.1832767E0,1.5985173E-1,0E0,0E0,0E0,0E0,0E0,0E0,0E0,0E0,0E0,0E0,0E0,0E0,0E0,0E0,0E0,0E0,0E0,0E0,0E0,0E0,0E0,0E0,0E0,0E0,0E0,0E0],"parents":[2147483647,0,0,1,1,2,2,3,3,4,4,5,5,6,6,7,7,8,8,9,9,10,10,11,11,12,12,15,15,17,17,18,18,19,19,20,20,21,21,24,24,25,25,26,26,27,27,28,28,29,29,30,30,31,31,32,32,33,33,34,34,36,36,37,37,42,42,43,43,44,44],"right_children":[2,4,6,8,10,12,14,16,18,20,22,24,26,-1,-1,28,-1,30,32,34,36,38,-1,-1,40,42,44,46,48,50,52,54,56,58,60,-1,62,64,-1,-1,-1,-1,66,68,70,-1,-1,-1,-1,-1,-1,-1,-1,-1,-1,-1,-1,-1,-1,-1,-1,-1,-1,-1,-1,-1,-1,-1,-1,-1,-1],"split_conditions":[4.71E3,5.362E3,5.234E3,5.092E3,5.584E3,1.552E3,5.224E3,5.09E3,5.211E3,1.739E3,4.725E3,2.148E3,4.708E3,-2.4834596E-1,4.3775942E-2,5.052E3,-3.9812165E-1,1.659E3,3.993E3,1.633E3,1.85E3,4.32E3,3.1914368E-1,6.5849304E-2,1.513E3,1.69E3,6.125E3,2.144E3,5.127E3,2.144E3,4.188E3,2.19E3,2.184E3,4.44E3,2.434E3,1.59729E-1,1.907E3,5.818E3,-2.3652956E-1,-4.4735722E-2,-1.603775E-1,-9.839631E-2,5.112E3,4.766E3,2.236E3,2.9900433E-3,-6.775043E-2,-2.4633409E-1,-2.7490998E-2,6.638947E-2,3.3352357E-1,1.5811157E-1,-1.4019013E-2,-2.491379E-1,3.346863E-2,2.1067749E-1,5.5552893E-3,-3.473002E-2,-2.3660432E-1,-3.7460816E-1,-9.7119145E-2,-7.41806E-2,1.0455322E-2,2.1444703E-2,1.7758484E-1,1.8174204E-1,9.312195E-2,6.2560275E-2,-1.718628E-1,1.5087433E-1,2.8466797E-2],"split_indices":[6,5,7,5,5,0,4,5,5,0,7,2,3,0,0,4,0,0,6,0,0,3,0,0,0,1,5,1,4,2,4,2,2,3,2,0,0,5,0,0,0,0,6,7,1,0,0,0,0,0,0,0,0,0,0,0,0,0,0,0,0,0,0,0,0,0,0,0,0,0,0],"split_type":[0,0,0,0,0,0,0,0,0,0,0,0,0,0,0,0,0,0,0,0,0,0,0,0,0,0,0,0,0,0,0,0,0,0,0,0,0,0,0,0,0,0,0,0,0,0,0,0,0,0,0,0,0,0,0,0,0,0,0,0,0,0,0,0,0,0,0,0,0,0,0],"sum_hessian":[4E2,3.6E2,4E1,3.28E2,3.2E1,3.7E1,3E0,2.96E2,3.2E1,2.2E1,1E1,4E0,3.3E1,2E0,1E0,2.95E2,1E0,1E1,2.2E1,1.8E1,4E0,8E0,2E0,1E0,3E0,2.2E1,1.1E1,2.89E2,6E0,6E0,4E0,5E0,1.7E1,1.3E1,5E0,2E0,2E0,6E0,2E0,2E0,1E0,1E0,2.1E1,6E0,5E0,2.64E2,2.5E1,3E0,3E0,1E0,5E0,1E0,3E0,3E0,2E0,4E0,1.3E1,8E0,5E0,4E0,1E0,1E0,1E0,5E0,1E0,1.2E1,9E0,3E0,3E0,3E0,2E0],"tree_param":{"num_deleted":"0","num_feature":"8","num_nodes":"71","size_leaf_vector":"1"}},{"base_weights":[-5.0059482E-3,-1.0801536E-2,5.729065E-1,3.470549E-2,-8.236872E-2,2.0435487E-1,3.7211612E-2,2.7368898E-3,6.5253705E-1,-2.3825318E-1,-5.8253407E-2,-1.5810218E-1,8.313888E-2,1.1441912E-1,1.1715851E0,-3.9317423E-1,-2.1158038E-2,-5.912758E-2,-6.975352E-1,2.1051425E-1,-6.456892E-2,-1.5470275E-1,4.6959227E-1,6.4654544E-2,3.9590883E-1,-2.3089599E-2,-5.256514E-1,3.4047827E-2,-2.0336628E-1,-5.5141654E-2,7.965667E-2,-3.752179E-1,-7.9379655E-2,9.989973E-2,-9.980195E-3,-1.7931671E-1,1.1899051E-2,1.950142E-1,-3.7834167E-2,5.6433108E-2,-3.6875155E-2,-1.8081391E-1,3.674469E-2,-3.4295656E-2,4.764152E-2,-1.7018624E-1,-2.363306E-2],"categories":[],"categories_nodes":[],"categories_segments":[],"categories_sizes":[],"default_left":[0,0,0,0,0,0,0,0,0,0,0,0,0,0,0,0,0,0,0,0,0,0,0,0,0,0,0,0,0,0,0,0,0,0,0,0,0,0,0,0,0,0,0,0,0,0,0],"id":15,"left_children":[1,3,5,7,9,-1,-1,11,13,-1,15,17,19,21,23,25,27,29,31,33,35,-1,37,-1,-1,39,41,43,45,-1,-1,-1,-1,-1,-1,-1,-1,-1,-1,-1,-1,-1,-1,-1,-1,-1,-1],"loss_changes":[1.3492745E0,1.2990688E0,1.09914064E-1,4.817509E0,2.614386E0,0E0,0E0,3.0262494E0,3.2176566E0,0E0,1.8677071E0,4.12319E0,2.9486294E0,1.8087072E0,5.6521225E-1,7.232795E-1,1.3850023E0,2.7607408E0,2.543017E0,2.51928E0,4.080455E0,0E0,6.1947083E-1,0E0,0E0,1.2853988E-1,6.232302E-1,1.980195E0,1.4062142E0,0E0,0E0,0E0,0E0,0E0,0E0,0E0,0E0,0E0,0E0,0E0,0E0,0E0,0E0,0E0,0E0,0E0,0E0],"parents":[2147483647,0,0,1,1,2,2,3,3,4,4,7,7,8,8,10,10,11,11,12,12,13,13,14,14,15,15,16,16,17,17,18,18,19,19,20,20,22,22,25,25,26,26,27,27,28,28],"right_children":[2,4,6,8,10,-1,-1,12,14,-1,16,18,20,22,24,26,28,30,32,34,36,-1,38,-1,-1,40,42,44,46,-1,-1,-1,-1,-1,-1,-1,-1,-1,-1,-1,-1,-1,-1,-1,-1,-1,-1],"split_conditions":[5.682E3,4.392E3,1.744E3,4.353E3,3.852E3,2.0435487E-1,3.7211612E-2,3.37E3,4.372E3,-2.3825318E-1,4.433E3,4.241E3,1.576E3,4.082E3,1.404E3,4.112E3,4.833E3,3.942E3,1.424E3,3.884E3,2.016E3,-1.5470275E-1,4.344E3,6.4654544E-2,3.9590883E-1,4.403E3,1.722E3,4.482E3,4.871E3,-5.5141654E-2,7.965667E-2,-3.752179E-1,-7.9379655E-2,9.989973E-2,-9.980195E-3,-1.7931671E-1,1.1899051E-2,1.950142E-1,-3.7834167E-2,5.6433108E-2,-3.6875155E-2,-1.8081391E-1,3.674469E-2,-3.4295656E-2,4.764152E-2,-1.7018624E-1,-2.363306E-2],"split_indices":[6,7,0,7,4,0,0,6,4,0,7,5,0,3,1,3,4,7,0,6,2,0,3,0,0,4,0,4,4,0,0,0,0,0,0,0,0,0,0,0,0,0,0,0,0,0,0],"split_type":[0,0,0,0,0,0,0,0,0,0,0,0,0,0,0,0,0,0,0,0,0,0,0,0,0,0,0,0,0,0,0,0,0,0,0,0,0,0,0,0,0,0,0,0,0,0,0],"sum_hessian":[4E2,3.97E2,3E0,2.43E2,1.54E2,2E0,1E0,2.32E2,1.1E1,4E0,1.5E2,7.7E1,1.55E2,6E0,5E0,1.4E1,1.36E2,6.6E1,1.1E1,8.3E1,7.2E1,2E0,4E0,1E0,4E0,4E0,1E1,1.05E2,3.1E1,4.8E1,1.8E1,4E0,7E0,5.5E1,2.8E1,1.1E1,6.1E1,3E0,1E0,1E0,3E0,9E0,1E0,4.8E1,5.7E1,7E0,2.4E1],"tree_param":{"num_deleted":"0","num_feature":"8","num_nodes":"47","size_leaf_vector":"1"}},{"base_weights":[-4.36858E-3,-5.6821283E-2,4.1273393E-2,-2.2700666E-3,-4.6585223E-1,2.3013306E-1,-2.0388177E-2,1.0214347E-1,-1.00586645E-1,-4.1371662E-2,-5.8826584E-1,1.3748102E-1,7.341156E-1,-4.624562E-1,3.0874033E-2,-4.2143467E-1,2.0843685E-1,-5.2193993E-1,-1.8401263E-2,-4.4241333E-1,2.697525E-1,-7.0267427E-1,-1.7315063E-1,2.3200685E-1,9.100134E-2,2.9909545E-1,2.2200012E-1,-6.156791E-1,1.8943787E-1,-3.2307434E-1,7.964478E-2,-1.6894531E-1,-7.299296E-1,1.0591973E-1,5.636027E-1,-6.4488E-2,-8.569679E-1,2.21196E-1,-3.9137945E-2,-1.8812257E-1,-1.096344E-2,1.871338E-2,9.542542E-2,-8.9156085E-1,-2.2214356E-1,1.9454956E-2,-7.465897E-2,-1.492981E-1,1.5705828E-1,8.79303E-2,1.3046265E-3,3.989665E-2,-7.282664E-1,7.848816E-2,-4.069519E-3,1.2973022E-1,-5.072092E-1,1.1173553E0,4.6333853E-2,-1.3554382E-1,4.4313356E-2,-1.1444092E-2,-2.5819704E-1,6.9761395E-2,-1.6590272E-1,2.5570527E-1,-1.3306275E-1,-1.0208314E-1,1.2499695E-1,-2.121277E-2,-2.877568E-1,2.012439E-2,-8.050431E-2,-2.9233247E-1,-3.4277346E-2,-4.527283E-3,-1.575531E-1,6.6638947E-3,-1.670685E-1,1.0313739E-1,-5.4854546E-3,-2.4559023E-2,4.2512514E-2,-2.4241167E-1,2.2384644E-2,-5.13382E-2,6.723817E-2,5.0917055E-2,-1.7332916E-1,3.9252624E-1,8.1623845E-2,-1.7560501E-1,2.6418E-2],"categories":[],"categories_nodes":[],"categories_segments":[],"categories_sizes":[],"default_left":[0,0,0,0,0,0,0,0,0,0,0,0,0,0,0,0,0,0,0,0,0,0,0,0,0,0,0,0,0,0,0,0,0,0,0,0,0,0,0,0,0,0,0,0,0,0,0,0,0,0,0,0,0,0,0,0,0,0,0,0,0,0,0,0,0,0,0,0,0,0,0,0,0,0,0,0,0,0,0,0,0,0,0,0,0,0,0,0,0,0,0,0,0],"id":16,"left_children":[1,3,5,7,9,11,13,15,17,19,21,23,25,27,29,31,33,35,37,39,41,43,45,-1,47,-1,49,51,53,55,57,59,61,63,65,67,69,-1,71,-1,-1,-1,-1,73,75,-1,-1,77,79,-1,-1,81,83,-1,-1,85,87,89,91,-1,-1,-1,-1,-1,-1,-1,-1,-1,-1,-1,-1,-1,-1,-1,-1,-1,-1,-1,-1,-1,-1,-1,-1,-1,-1,-1,-1,-1,-1,-1,-1,-1,-1],"loss_changes":[9.6235716E-1,4.1714983E0,2.5084493E0,1.7143607E0,1.1188307E0,2.373908E0,3.7080832E0,4.595727E0,2.9684968E0,8.679846E-1,6.857071E-1,1.2891662E0,8.556247E-1,1.8146791E0,2.5632932E0,9.6716547E-1,2.4162228E0,2.0903647E0,1.1728512E0,2.0192897E-1,2.0249993E-2,9.8190165E-1,1.06236905E-1,0E0,7.218801E-1,0E0,6.062618E-2,1.0623884E0,6.216757E-2,1.5665882E0,4.441951E0,8.7288404E-1,5.097773E-1,4.6339455E0,4.740224E0,1.0706396E0,5.751562E-1,0E0,1.7709482E0,0E0,0E0,0E0,0E0,4.6847248E-1,3.0579394E-1,0E0,0E0,7.11444E-1,1.1522684E0,0E0,0E0,4.8790533E-2,8.2886744E-1,0E0,0E0,2.0875451E-1,7.189498E-1,2.9001808E-1,3.3989782E0,0E0,0E0,0E0,0E0,0E0,0E0,0E0,0E0,0E0,0E0,0E0,0E0,0E0,0E0,0E0,0E0,0E0,0E0,0E0,0E0,0E0,0E0,0E0,0E0,0E0,0E0,0E0,0E0,0E0,0E0,0E0,0E0,0E0,0E0],"parents":[2147483647,0,0,1,1,2,2,3,3,4,4,5,5,6,6,7,7,8,8,9,9,10,10,11,11,12,12,13,13,14,14,15,15,16,16,17,17,18,18,19,19,20,20,21,21,22,22,24,24,26,26,27,27,28,28,29,29,30,30,31,31,32,32,33,33,34,34,35,35,36,36,38,38,43,43,44,44,47,47,48,48,51,51,52,52,55,55,56,56,57,57,58,58],"right_children":[2,4,6,8,10,12,14,16,18,20,22,24,26,28,30,32,34,36,38,40,42,44,46,-1,48,-1,50,52,54,56,58,60,62,64,66,68,70,-1,72,-1,-1,-1,-1,74,76,-1,-1,78,80,-1,-1,82,84,-1,-1,86,88,90,92,-1,-1,-1,-1,-1,-1,-1,-1,-1,-1,-1,-1,-1,-1,-1,-1,-1,-1,-1,-1,-1,-1,-1,-1,-1,-1,-1,-1,-1,-1,-1,-1,-1,-1],"split_conditions":[1.526E3,1.501E3,1.673E3,4.277E3,4.153E3,3.96E3,1.718E3,3.619E3,4.273E3,1.385E3,1.514E3,1.624E3,4.209E3,4.276E3,3.552E3,1.324E3,4.001E3,3.866E3,4.283E3,1.509E3,1.509E3,4.336E3,3.783E3,2.3200685E-1,3.879E3,2.9909545E-1,1.583E3,4.149E3,1.686E3,3.706E3,1.728E3,1.296E3,1.298E3,3.88E3,3.759E3,4.497E3,4.289E3,2.21196E-1,1.501E3,-1.8812257E-1,-1.096344E-2,1.871338E-2,9.542542E-2,5.584E3,1.513E3,1.9454956E-2,-7.465897E-2,3.861E3,3.434E3,8.79303E-2,1.3046265E-3,1.54E3,2.19E3,7.848816E-2,-4.069519E-3,1.872E3,3.27E3,3.638E3,2.13E3,-1.3554382E-1,4.4313356E-2,-1.1444092E-2,-2.5819704E-1,6.9761395E-2,-1.6590272E-1,2.5570527E-1,-1.3306275E-1,-1.0208314E-1,1.2499695E-1,-2.121277E-2,-2.877568E-1,2.012439E-2,-8.050431E-2,-2.9233247E-1,-3.4277346E-2,-4.527283E-3,-1.575531E-1,6.6638947E-3,-1.670685E-1,1.0313739E-1,-5.4854546E-3,-2.4559023E-2,4.2512514E-2,-2.4241167E-1,2.2384644E-2,-5.13382E-2,6.723817E-2,5.0917055E-2,-1.7332916E-1,3.9252624E-1,8.1623845E-2,-1.7560501E-1,2.6418E-2],"split_indices":[0,0,1,4,5,6,1,5,7,1,0,2,6,3,6,1,4,3,7,0,0,4,6,0,5,0,0,5,0,5,1,0,0,3,6,4,4,0,1,0,0,0,0,5,0,0,0,5,6,0,0,0,2,0,0,2,3,4,2,0,0,0,0,0,0,0,0,0,0,0,0,0,0,0,0,0,0,0,0,0,0,0,0,0,0,0,0,0,0,0,0,0,0],"split_type":[0,0,0,0,0,0,0,0,0,0,0,0,0,0,0,0,0,0,0,0,0,0,0,0,0,0,0,0,0,0,0,0,0,0,0,0,0,0,0,0,0,0,0,0,0,0,0,0,0,0,0,0,0,0,0,0,0,0,0,0,0,0,0,0,0,0,0,0,0,0,0,0,0,0,0,0,0,0,0,0,0,0,0,0,0,0,0,0,0,0,0,0,0],"sum_hessian":[4E2,1.86E2,2.14E2,1.65E2,2.1E1,5.2E1,1.62E2,8E1,8.5E1,5E0,1.6E1,4.5E1,7E0,1.6E1,1.46E2,1.3E1,6.7E1,1.3E1,7.2E1,2E0,3E0,1.2E1,4E0,2E0,4.3E1,4E0,3E0,1.3E1,3E0,1.7E1,1.29E2,8E0,5E0,5.3E1,1.4E1,6E0,7E0,1E0,7.1E1,1E0,1E0,1E0,2E0,8E0,4E0,1E0,3E0,9E0,3.4E1,2E0,1E0,2E0,1.1E1,2E0,1E0,5E0,1.2E1,3E0,1.26E2,4E0,4E0,1E0,4E0,4.5E1,8E0,1.1E1,3E0,4E0,2E0,1E0,6E0,4.9E1,2.2E1,7E0,1E0,3E0,1E0,7E0,2E0,1.6E1,1.8E1,1E0,1E0,1E1,1E0,1E0,4E0,1E0,1.1E1,2E0,1E0,7E0,1.19E2],"tree_param":{"num_deleted":"0","num_feature":"8","num_nodes":"93","size_leaf_vector":"1"}},{"base_weights":[-4.157316E-3,-5.7493083E-2,3.9106626E-2,1.4048794E-3,-1.5684941E-1,4.9461535E-1,1.9766977E-2,-5.2829448E-2,5.140381E-1,3.1264386E-1,-2.081544E-1,7.1036637E-1,-5.2102663E-2,-6.1190796E-1,5.0483964E-2,-1.5645027E-2,-4.4359335E-1,7.534281E-2,2.6011813E-1,2.190262E-1,-1.8296051E-1,-3.134693E-1,2.3414612E-2,8.460999E-2,8.2529294E-1,-8.185323E-2,-1.125592E0,7.6923966E-1,1.7391147E-2,-1.1835648E-1,1.4423972E-1,-7.739461E-1,1.6283417E-1,-3.1021118E-2,5.7614136E-2,-9.330139E-2,3.0175783E-2,-4.7114944E-1,-9.7795986E-2,2.0909119E-1,-9.264902E-2,7.3855594E-2,2.7255708E-1,9.734803E-2,-3.661499E-1,-9.82956E-2,-3.7294924E-1,1.1114763E0,-2.8572592E-1,-3.7146607E-1,3.7982535E-2,-2.0108676E-2,-3.1623843E-1,9.471276E-2,-7.760468E-3,-8.0862425E-2,-2.8762895E-1,6.4804085E-2,4.943848E-4,-3.1553652E-2,8.62732E-3,-4.830526E-2,-1.8484555E-1,1.778656E-1,-1.1604505E-1,-7.249146E-2,9.240025E-2,9.829331E-3,-7.332764E-2,-2.8880311E-2,-1.2720643E-1,1.0354004E-1,4.0469608E-1,-1.09378055E-1,-1.919861E-2,-1.3966167E-1,7.1278386E-2,2.3308411E-1,6.539884E-3],"categories":[],"categories_nodes":[],"categories_segments":[],"categories_sizes":[],"default_left":[0,0,0,0,0,0,0,0,0,0,0,0,0,0,0,0,0,0,0,0,0,0,0,0,0,0,0,0,0,0,0,0,0,0,0,0,0,0,0,0,0,0,0,0,0,0,0,0,0,0,0,0,0,0,0,0,0,0,0,0,0,0,0,0,0,0,0,0,0,0,0,0,0,0,0,0,0,0,0],"id":17,"left_children":[1,3,5,7,9,11,13,15,17,19,21,23,-1,25,27,29,31,33,-1,-1,35,37,39,-1,41,43,45,47,49,51,53,55,57,59,-1,-1,-1,61,63,65,67,-1,-1,-1,69,-1,-1,71,73,75,77,-1,-1,-1,-1,-1,-1,-1,-1,-1,-1,-1,-1,-1,-1,-1,-1,-1,-1,-1,-1,-1,-1,-1,-1,-1,-1,-1,-1],"loss_changes":[9.275621E-1,1.0535598E0,1.945905E0,3.1966205E0,1.67893E0,1.4210336E0,4.183166E0,1.5042143E0,1.6382341E0,1.5817846E0,1.4949875E0,1.1182785E-1,0E0,2.6306736E0,4.8626804E0,1.5935832E0,1.92904E0,8.043629E-2,0E0,0E0,1.7650852E-1,1.3822341E0,4.5037806E-1,0E0,1.7332315E-2,8.119512E-1,6.1751842E-2,3.5670085E0,1.5915099E0,2.7631643E0,1.1165628E0,3.009088E-1,3.393118E-2,2.0756956E-2,0E0,0E0,0E0,9.8006535E-1,4.022143E0,4.3107662E-1,2.5546098E-1,0E0,0E0,0E0,2.1654427E-2,0E0,0E0,8.085213E-1,2.9129788E-2,6.835699E-1,2.2312806E0,0E0,0E0,0E0,0E0,0E0,0E0,0E0,0E0,0E0,0E0,0E0,0E0,0E0,0E0,0E0,0E0,0E0,0E0,0E0,0E0,0E0,0E0,0E0,0E0,0E0,0E0,0E0,0E0],"parents":[2147483647,0,0,1,1,2,2,3,3,4,4,5,5,6,6,7,7,8,8,9,9,10,10,11,11,13,13,14,14,15,15,16,16,17,17,20,20,21,21,22,22,24,24,25,25,26,26,27,27,28,28,29,29,30,30,31,31,32,32,33,33,37,37,38,38,39,39,40,40,44,44,47,47,48,48,49,49,50,50],"right_children":[2,4,6,8,10,12,14,16,18,20,22,24,-1,26,28,30,32,34,-1,-1,36,38,40,-1,42,44,46,48,50,52,54,56,58,60,-1,-1,-1,62,64,66,68,-1,-1,-1,70,-1,-1,72,74,76,78,-1,-1,-1,-1,-1,-1,-1,-1,-1,-1,-1,-1,-1,-1,-1,-1,-1,-1,-1,-1,-1,-1,-1,-1,-1,-1,-1,-1],"split_conditions":[3.509E3,1.501E3,3.209E3,1.898E3,1.389E3,3.042E3,3.397E3,1.468E3,3.075E3,4.486E3,1.584E3,4.149E3,-5.2102663E-2,1.98E3,3.49E3,1.747E3,1.492E3,1.379E3,2.6011813E-1,2.190262E-1,1.98E3,1.964E3,1.664E3,8.460999E-2,2.662E3,3.815E3,1.572E3,3.682E3,1.432E3,4.163E3,4.392E3,4.193E3,1.475E3,1.288E3,5.7614136E-2,-9.330139E-2,3.0175783E-2,1.88E3,2.034E3,1.786E3,3.42E3,7.3855594E-2,2.7255708E-1,9.734803E-2,2.78E3,-9.82956E-2,-3.7294924E-1,1.475E3,1.58E3,4.42E3,1.439E3,-2.0108676E-2,-3.1623843E-1,9.471276E-2,-7.760468E-3,-8.0862425E-2,-2.8762895E-1,6.4804085E-2,4.943848E-4,-3.1553652E-2,8.62732E-3,-4.830526E-2,-1.8484555E-1,1.778656E-1,-1.1604505E-1,-7.249146E-2,9.240025E-2,9.829331E-3,-7.332764E-2,-2.8880311E-2,-1.2720643E-1,1.0354004E-1,4.0469608E-1,-1.09378055E-1,-1.919861E-2,-1.3966167E-1,7.1278386E-2,2.3308411E-1,6.539884E-3],"split_indices":[6,1,4,2,0,3,7,1,6,4,0,5,0,2,7,2,1,0,0,0,2,2,1,0,3,6,0,4,0,5,7,5,0,0,0,0,0,2,2,2,3,0,0,0,3,0,0,0,0,4,0,0,0,0,0,0,0,0,0,0,0,0,0,0,0,0,0,0,0,0,0,0,0,0,0,0,0,0,0],"split_type":[0,0,0,0,0,0,0,0,0,0,0,0,0,0,0,0,0,0,0,0,0,0,0,0,0,0,0,0,0,0,0,0,0,0,0,0,0,0,0,0,0,0,0,0,0,0,0,0,0,0,0,0,0,0,0,0,0,0,0,0,0,0,0,0,0,0,0,0,0,0,0,0,0,0,0,0,0,0,0],"sum_hessian":[4E2,1.79E2,2.21E2,1.13E2,6.6E1,8E0,2.13E2,1.03E2,1E1,6E0,6E1,6E0,2E0,9E0,2.04E2,9.5E1,8E0,5E0,5E0,3E0,3E0,4.1E1,1.9E1,2E0,4E0,5E0,4E0,8E0,1.96E2,5.8E1,3.7E1,5E0,3E0,3E0,2E0,2E0,1E0,2.3E1,1.8E1,7E0,1.2E1,1E0,3E0,2E0,3E0,1E0,3E0,6E0,2E0,9E0,1.87E2,5.6E1,2E0,1.8E1,1.9E1,2E0,3E0,2E0,1E0,1E0,2E0,8E0,1.5E1,5E0,1.3E1,1E0,6E0,7E0,5E0,1E0,2E0,2E0,4E0,1E0,1E0,8E0,1E0,3E0,1.84E2],"tree_param":{"num_deleted":"0","num_feature":"8","num_nodes":"79","size_leaf_vector":"1"}},{"base_weights":[-2.699702E-3,-7.1091386E-3,4.3671417E-1,7.842426E-3,-1.4896192E-1,1.5689392E-1,2.6687624E-2,-2.1804657E-2,1.4842394E-1,-1.0182783E-1,-1.9947511E-1,2.9386118E-2,-1.03965424E-1,2.2922608E-1,9.3733445E-2,-1.6214974E-1,2.2680664E-1,-1.2745705E-1,1.4238966E-1,-7.243193E-2,-5.801348E-1,2.893186E-1,-3.0379837E-2,1.03627525E-1,-2.1724643E-1,-3.3755496E-2,9.5152594E-2,-1.6399754E-3,-1.694598E-1,-2.9832765E-2,6.972668E-2,-3.203866E-2,1.3306537E-1,-4.9333192E-2,-2.5523758E-1,1.6187096E-2,2.171631E-1,-1.2307739E-1,6.5606296E-2,-4.8802186E-2,1.272461E-1,-1.0311668E-1,-3.5014916E-2],"categories":[],"categories_nodes":[],"categories_segments":[],"categories_sizes":[],"default_left":[0,0,0,0,0,0,0,0,0,0,0,0,0,0,0,0,0,0,0,0,0,0,0,0,0,0,0,0,0,0,0,0,0,0,0,0,0,0,0,0,0,0,0],"id":18,"left_children":[1,3,5,7,9,-1,-1,11,13,15,-1,17,19,-1,21,23,25,27,29,31,33,35,37,39,41,-1,-1,-1,-1,-1,-1,-1,-1,-1,-1,-1,-1,-1,-1,-1,-1,-1,-1],"loss_changes":[7.8006923E-1,8.452948E-1,7.347369E-2,1.5078235E0,8.564177E-1,0E0,0E0,1.2606113E0,2.0496469E0,7.504355E-1,0E0,3.2970576E0,1.6847374E0,0E0,1.4409975E0,4.7645956E-1,2.1967411E-1,4.158971E0,2.3745735E0,1.980052E0,6.4766026E-1,2.313344E0,3.5904837E0,5.811382E-1,2.9046214E-1,0E0,0E0,0E0,0E0,0E0,0E0,0E0,0E0,0E0,0E0,0E0,0E0,0E0,0E0,0E0,0E0,0E0,0E0],"parents":[2147483647,0,0,1,1,2,2,3,3,4,4,7,7,8,8,9,9,11,11,12,12,14,14,15,15,16,16,17,17,18,18,19,19,20,20,21,21,22,22,23,23,24,24],"right_children":[2,4,6,8,10,-1,-1,12,14,16,-1,18,20,-1,22,24,26,28,30,32,34,36,38,40,42,-1,-1,-1,-1,-1,-1,-1,-1,-1,-1,-1,-1,-1,-1,-1,-1,-1,-1],"split_conditions":[5.682E3,2.214E3,1.744E3,1.652E3,6.358E3,1.5689392E-1,2.6687624E-2,4.392E3,1.676E3,5.844E3,-1.9947511E-1,3.566E3,1.64E3,2.2922608E-1,4.127E3,3.694E3,1.708E3,3.683E3,1.432E3,1.619E3,4.392E3,1.898E3,4.345E3,2.304E3,4.226E3,-3.3755496E-2,9.5152594E-2,-1.6399754E-3,-1.694598E-1,-2.9832765E-2,6.972668E-2,-3.203866E-2,1.3306537E-1,-4.9333192E-2,-2.5523758E-1,1.6187096E-2,2.171631E-1,-1.2307739E-1,6.5606296E-2,-4.8802186E-2,1.272461E-1,-1.0311668E-1,-3.5014916E-2],"split_indices":[6,1,0,0,5,0,0,7,0,5,0,3,0,0,7,4,0,7,0,0,4,1,4,1,6,0,0,0,0,0,0,0,0,0,0,0,0,0,0,0,0,0,0],"split_type":[0,0,0,0,0,0,0,0,0,0,0,0,0,0,0,0,0,0,0,0,0,0,0,0,0,0,0,0,0,0,0,0,0,0,0,0,0,0,0,0,0,0,0],"sum_hessian":[4E2,3.97E2,3E0,3.6E2,3.7E1,2E0,1E0,2.98E2,6.2E1,3.5E1,2E0,1.84E2,1.14E2,4E0,5.8E1,3E1,5E0,7.7E1,1.07E2,1.08E2,6E0,2.2E1,3.6E1,5E0,2.5E1,1E0,4E0,6.1E1,1.6E1,2.9E1,7.8E1,1.02E2,6E0,3E0,3E0,1.5E1,7E0,1.4E1,2.2E1,3E0,2E0,1E1,1.5E1],"tree_param":{"num_deleted":"0","num_feature":"8","num_nodes":"43","size_leaf_vector":"1"}},{"base_weights":[-1.7473407E-3,1.8392622E-1,-1.0953739E-2,-6.3296E-2,5.317688E-1,-7.171631E-1,-3.4911307E-3,-1.3446046E-1,5.850525E-2,5.8207047E-1,2.6948549E-2,-3.0555727E-2,-2.6649478E-1,-1.2854134E-1,1.4116207E-2,1.283539E-1,-8.731079E-2,7.5228885E-2,1.9933228E-1,3.7839967E-1,-1.8449864E-1,3.8227755E-1,-5.6097643E-3,6.42395E-2,-1.4853413E-1,1.3005525E-1,2.3689272E-2,-2.4421239E-1,1.5748814E-1,-1.7631836E-1,5.677162E-1,-1.7536975E-1,1.2682491E-2,4.6188356E-3,2.4288941E-2,-5.5649415E-2,5.4428102E-3,-2.4961684E-2,-1.851629E-1,1.106305E-1,-7.414246E-2,-1.0255433E-1,1.4395143E-2,2.7801034E-1,3.8288664E-2,-1.216579E-1,4.015096E-3,1.2663484E-1,-6.114017E-4],"categories":[],"categories_nodes":[],"categories_segments":[],"categories_sizes":[],"default_left":[0,0,0,0,0,0,0,0,0,0,0,0,0,0,0,0,0,0,0,0,0,0,0,0,0,0,0,0,0,0,0,0,0,0,0,0,0,0,0,0,0,0,0,0,0,0,0,0,0],"id":19,"left_children":[1,3,5,7,9,11,13,-1,15,17,-1,-1,-1,19,21,-1,23,-1,-1,25,27,29,31,33,35,-1,-1,37,39,41,43,45,47,-1,-1,-1,-1,-1,-1,-1,-1,-1,-1,-1,-1,-1,-1,-1,-1],"loss_changes":[6.8747807E-1,1.6675527E0,2.015969E0,5.8880574E-1,1.2555623E-1,3.3077145E-1,8.3849895E-1,0E0,5.759141E-1,2.4412394E-2,0E0,0E0,0E0,1.4030654E0,2.427766E0,0E0,8.376909E-2,0E0,0E0,4.8288703E-2,9.165772E-1,1.8610482E0,9.897074E-1,1.203998E-3,4.0331602E-2,0E0,0E0,2.1706831E0,6.8956953E-1,2.0204614E-1,1.9355273E0,1.3521552E0,1.7366552E0,0E0,0E0,0E0,0E0,0E0,0E0,0E0,0E0,0E0,0E0,0E0,0E0,0E0,0E0,0E0,0E0],"parents":[2147483647,0,0,1,1,2,2,3,3,4,4,5,5,6,6,8,8,9,9,13,13,14,14,16,16,19,19,20,20,21,21,22,22,23,23,24,24,27,27,28,28,29,29,30,30,31,31,32,32],"right_children":[2,4,6,8,10,12,14,-1,16,18,-1,-1,-1,20,22,-1,24,-1,-1,26,28,30,32,34,36,-1,-1,38,40,42,44,46,48,-1,-1,-1,-1,-1,-1,-1,-1,-1,-1,-1,-1,-1,-1,-1,-1],"split_conditions":[3.03E3,2.826E3,3.093E3,1.069E3,3.245E3,1.324E3,3.631E3,-1.3446046E-1,1.344E3,2.738E3,2.6948549E-2,-3.0555727E-2,-2.6649478E-1,3.165E3,3.694E3,1.283539E-1,1.423E3,7.5228885E-2,1.9933228E-1,1.56E3,3.961E3,4.002E3,3.562E3,1.379E3,1.639E3,1.3005525E-1,2.3689272E-2,3.681E3,1.58E3,3.342E3,4.494E3,1.509E3,3.642E3,4.6188356E-3,2.4288941E-2,-5.5649415E-2,5.4428102E-3,-2.4961684E-2,-1.851629E-1,1.106305E-1,-7.414246E-2,-1.0255433E-1,1.4395143E-2,2.7801034E-1,3.8288664E-2,-1.216579E-1,4.015096E-3,1.2663484E-1,-6.114017E-4],"split_indices":[7,7,4,1,4,0,4,0,1,3,0,0,0,4,4,0,0,0,0,0,6,5,3,0,0,0,0,6,0,3,5,0,3,0,0,0,0,0,0,0,0,0,0,0,0,0,0,0,0],"split_type":[0,0,0,0,0,0,0,0,0,0,0,0,0,0,0,0,0,0,0,0,0,0,0,0,0,0,0,0,0,0,0,0,0,0,0,0,0,0,0,0,0,0,0,0,0,0,0,0,0],"sum_hessian":[4E2,1.8E1,3.82E2,1.1E1,7E0,3E0,3.79E2,2E0,9E0,6E0,1E0,1E0,2E0,4.6E1,3.33E2,2E0,7E0,2E0,4E0,4E0,4.2E1,1.6E1,3.17E2,2E0,5E0,3E0,1E0,3.6E1,6E0,4E0,1.2E1,3E1,2.87E2,1E0,1E0,4E0,1E0,2.6E1,1E1,4E0,2E0,2E0,2E0,6E0,6E0,1.3E1,1.7E1,9E0,2.78E2],"tree_param":{"num_deleted":"0","num_feature":"8","num_nodes":"49","size_leaf_vector":"1"}},{"base_weights":[-7.4239145E-4,-1.5599218E-2,9.501535E-2,3.2586907E-3,-4.071045E-1,-1.1727905E-1,1.796742E-1,-1.4420916E-2,2.8066558E-1,-8.198166E-2,-6.508687E-1,5.5773053E-2,-2.6572877E-1,6.492615E-1,1.2250689E-1,4.5981156E-3,-5.387268E-1,7.096008E-1,1.2908173E-1,-6.910095E-2,5.859375E-3,-8.567897E-1,4.6569824E-2,1.6142443E-1,-1.1199951E-1,5.4446414E-2,2.2340699E-1,3.2404217E-1,-5.493164E-3,-5.46543E-3,3.3506605E-1,-1.0196304E0,-2.3093414E-1,8.776856E-2,2.6703188E-1,-3.8121796E-1,2.7616766E-1,9.175873E-2,-1.1062622E-1,-7.07016E-2,-2.7630922E-1,2.3895265E-3,1.8566895E-2,-2.6252748E-2,2.0347977E-1,4.463196E-3,-6.8984985E-2,2.7835846E-2,6.16272E-1,-3.2240078E-1,1.2532133E-1,4.568232E-2,-7.548662E-3,1.6289979E-1,-1.8180085E-2,-3.4672242E-1,-9.1694646E-2,-1.21362306E-1,-1.3758546E-2,-1.3190614E-1,-3.0871583E-2,1.1824369E-1,-7.454224E-2,-2.609253E-4,3.6877442E-2,-4.4114687E-2,-5.6671146E-3,-2.1496583E-2,7.590637E-2,1.1618042E-2,-5.960083E-3,-5.527039E-2,3.8769532E-2,2.4095537E-1,8.2587436E-2,-1.5432358E-1,-1.4936829E-2,-6.345622E-3,7.736105E-2],"categories":[],"categories_nodes":[],"categories_segments":[],"categories_sizes":[],"default_left":[0,0,0,0,0,0,0,0,0,0,0,0,0,0,0,0,0,0,0,0,0,0,0,0,0,0,0,0,0,0,0,0,0,0,0,0,0,0,0,0,0,0,0,0,0,0,0,0,0,0,0,0,0,0,0,0,0,0,0,0,0,0,0,0,0,0,0,0,0,0,0,0,0,0,0,0,0,0,0],"id":20,"left_children":[1,3,5,7,9,11,13,15,17,19,21,23,-1,25,27,29,31,33,35,-1,37,39,41,43,45,-1,-1,47,49,51,53,55,57,-1,-1,59,61,63,65,-1,-1,-1,-1,-1,67,69,-1,71,73,75,77,-1,-1,-1,-1,-1,-1,-1,-1,-1,-1,-1,-1,-1,-1,-1,-1,-1,-1,-1,-1,-1,-1,-1,-1,-1,-1,-1,-1],"loss_changes":[5.7196724E-1,2.5706005E0,9.915924E-1,1.6372278E0,1.2146935E0,2.1772044E0,9.674177E-1,3.1336195E0,1.2087965E0,1.0560277E-1,1.3324566E0,2.6623505E-1,0E0,4.340315E-2,9.304551E-1,1.0128376E0,1.3927374E0,1.15977764E-1,1.3062065E0,0E0,7.018715E-2,6.22468E-2,1.2812968E-3,1.1202724E-1,8.344727E-2,0E0,0E0,1.19469E0,9.938942E-1,9.2349344E-1,7.733555E-1,3.547144E-2,2.3848563E-1,0E0,0E0,1.984471E-2,9.025853E-1,1.1654377E-2,7.245999E-3,0E0,0E0,0E0,0E0,0E0,1.2717506E-1,4.103937E-3,0E0,1.9583361E-1,2.2502494E-1,3.4079862E-1,3.3550742E-1,0E0,0E0,0E0,0E0,0E0,0E0,0E0,0E0,0E0,0E0,0E0,0E0,0E0,0E0,0E0,0E0,0E0,0E0,0E0,0E0,0E0,0E0,0E0,0E0,0E0,0E0,0E0,0E0],"parents":[2147483647,0,0,1,1,2,2,3,3,4,4,5,5,6,6,7,7,8,8,9,9,10,10,11,11,13,13,14,14,15,15,16,16,17,17,18,18,20,20,21,21,22,22,23,23,24,24,27,27,28,28,29,29,30,30,31,31,32,32,35,35,36,36,37,37,38,38,44,44,45,45,47,47,48,48,49,49,50,50],"right_children":[2,4,6,8,10,12,14,16,18,20,22,24,-1,26,28,30,32,34,36,-1,38,40,42,44,46,-1,-1,48,50,52,54,56,58,-1,-1,60,62,64,66,-1,-1,-1,-1,-1,68,70,-1,72,74,76,78,-1,-1,-1,-1,-1,-1,-1,-1,-1,-1,-1,-1,-1,-1,-1,-1,-1,-1,-1,-1,-1,-1,-1,-1,-1,-1,-1,-1],"split_conditions":[4.672E3,4.791E3,1.764E3,4.654E3,1.664E3,4.022E3,1.84E3,4.593E3,4.104E3,1.276E3,1.765E3,5.008E3,-2.6572877E-1,1.276E3,4.627E3,5.818E3,4.615E3,1.435E3,4.372E3,-6.910095E-2,4.594E3,1.468E3,1.829E3,4.708E3,1.393E3,5.4446414E-2,2.2340699E-1,4.477E3,4.84E3,1.358E3,5.969E3,1.606E3,1.645E3,8.776856E-2,2.6703188E-1,1.411E3,4.536E3,1.215E3,1.486E3,-7.07016E-2,-2.7630922E-1,2.3895265E-3,1.8566895E-2,-2.6252748E-2,1.207E3,1.22E3,-6.8984985E-2,4.41E3,4.509E3,4.864E3,2.46E3,4.568232E-2,-7.548662E-3,1.6289979E-1,-1.8180085E-2,-3.4672242E-1,-9.1694646E-2,-1.21362306E-1,-1.3758546E-2,-1.3190614E-1,-3.0871583E-2,1.1824369E-1,-7.454224E-2,-2.609253E-4,3.6877442E-2,-4.4114687E-2,-5.6671146E-3,-2.1496583E-2,7.590637E-2,1.1618042E-2,-5.960083E-3,-5.527039E-2,3.8769532E-2,2.4095537E-1,8.2587436E-2,-1.5432358E-1,-1.4936829E-2,-6.345622E-3,7.736105E-2],"split_indices":[3,7,2,4,1,5,2,4,3,1,0,7,0,1,4,5,4,0,3,0,5,0,0,3,0,0,0,4,4,1,5,0,0,0,0,0,3,0,1,0,0,0,0,0,0,0,0,7,4,7,2,0,0,0,0,0,0,0,0,0,0,0,0,0,0,0,0,0,0,0,0,0,0,0,0,0,0,0,0],"split_type":[0,0,0,0,0,0,0,0,0,0,0,0,0,0,0,0,0,0,0,0,0,0,0,0,0,0,0,0,0,0,0,0,0,0,0,0,0,0,0,0,0,0,0,0,0,0,0,0,0,0,0,0,0,0,0,0,0,0,0,0,0,0,0,0,0,0,0,0,0,0,0,0,0,0,0,0,0,0,0],"sum_hessian":[4E2,3.47E2,5.3E1,3.32E2,1.5E1,1.5E1,3.8E1,3.13E2,1.9E1,7E0,8E0,1.3E1,2E0,3E0,3.5E1,3.03E2,1E1,4E0,1.5E1,2E0,5E0,6E0,2E0,8E0,5E0,1E0,2E0,1.3E1,2.2E1,2.95E2,8E0,3E0,7E0,2E0,2E0,3E0,1.2E1,3E0,2E0,1E0,5E0,1E0,1E0,1E0,7E0,3E0,2E0,7E0,6E0,6E0,1.6E1,3.2E1,2.63E2,5E0,3E0,2E0,1E0,3E0,4E0,2E0,1E0,1E1,2E0,1E0,2E0,1E0,1E0,1E0,6E0,1E0,2E0,2E0,5E0,3E0,3E0,3E0,3E0,8E0,8E0],"tree_param":{"num_deleted":"0","num_feature":"8","num_nodes":"79","size_leaf_vector":"1"}},{"base_weights":[-1.4684967E-3,-1.2309609E-1,8.698415E-3,-4.9960327E-1,-4.8813432E-2,2.4007873E-1,-4.472906E-3,-5.5725098E-2,-2.3308411E-1,-1.4028083E-1,1.20709226E-1,5.1346165E-1,1.5034993E-2,1.803091E-1,-1.4971065E-2,1.5028382E-2,-4.0104676E-2,1.44601E-1,-2.9477182E-1,2.004133E-1,-4.8950195E-2,-7.172242E-2,7.626256E-1,-2.9957798E-1,3.7957764E-1,2.7116394E-1,-6.173706E-2,-2.1168518E-1,-8.685192E-3,5.9117436E-2,2.6916505E-3,-3.5159913E-1,-7.0902505E-3,-2.2201538E-3,2.3628235E-1,9.873963E-3,-2.6162721E-2,2.529938E-1,4.1775513E-2,-4.5206707E-2,-3.9228517E-1,2.1094437E-1,-1.7837524E-1,1.0179792E-1,1.1563912E-1,-4.0093232E-2,1.6415406E-2,-2.1292725E-1,9.761786E-4,-1.3006897E-1,-3.6078647E-2,-2.1972657E-4,-2.9708864E-3,9.266281E-2,1.8218994E-2,1.9729615E-3,-2.2315979E-2,-1.346489E-1,-2.4916077E-2,1.2808228E-2,-9.307709E-2,1.2528992E-1,-6.1340337E-3,1.3437806E-1,-1.0471591E-1,-5.0128996E-2,4.766148E-3],"categories":[],"categories_nodes":[],"categories_segments":[],"categories_sizes":[],"default_left":[0,0,0,0,0,0,0,0,0,0,0,0,0,0,0,0,0,0,0,0,0,0,0,0,0,0,0,0,0,0,0,0,0,0,0,0,0,0,0,0,0,0,0,0,0,0,0,0,0,0,0,0,0,0,0,0,0,0,0,0,0,0,0,0,0,0,0],"id":21,"left_children":[1,3,5,7,9,11,13,15,-1,17,19,21,23,25,27,-1,-1,29,31,33,35,-1,37,39,41,43,45,-1,47,-1,-1,49,51,-1,53,-1,-1,-1,-1,55,57,-1,59,61,-1,-1,-1,63,65,-1,-1,-1,-1,-1,-1,-1,-1,-1,-1,-1,-1,-1,-1,-1,-1,-1,-1],"loss_changes":[4.9693814E-1,8.426192E-1,1.1317276E0,5.722387E-1,4.3558967E-1,1.2227426E0,6.8553394E-1,3.1444967E-2,0E0,8.3483446E-1,1.4503573E-1,1.8698685E0,1.4899913E0,4.345711E-1,1.4438704E0,0E0,0E0,4.8034832E-2,1.9368505E-1,5.3927183E-2,1.5398335E-2,0E0,2.346549E-1,1.4734036E-1,1.208646E0,2.3177958E-1,5.7556376E-2,0E0,6.553296E-1,0E0,0E0,1.3747203E-1,4.6394925E-5,0E0,5.770594E-2,0E0,0E0,0E0,0E0,5.0222934E-3,5.01498E-2,0E0,1.00711145E-1,2.7880347E-1,0E0,0E0,0E0,1.5057395E0,7.9960424E-1,0E0,0E0,0E0,0E0,0E0,0E0,0E0,0E0,0E0,0E0,0E0,0E0,0E0,0E0,0E0,0E0,0E0,0E0],"parents":[2147483647,0,0,1,1,2,2,3,3,4,4,5,5,6,6,7,7,9,9,10,10,11,11,12,12,13,13,14,14,17,17,18,18,19,19,20,20,22,22,23,23,24,24,25,25,26,26,28,28,31,31,32,32,34,34,39,39,40,40,42,42,43,43,47,47,48,48],"right_children":[2,4,6,8,10,12,14,16,-1,18,20,22,24,26,28,-1,-1,30,32,34,36,-1,38,40,42,44,46,-1,48,-1,-1,50,52,-1,54,-1,-1,-1,-1,56,58,-1,60,62,-1,-1,-1,64,66,-1,-1,-1,-1,-1,-1,-1,-1,-1,-1,-1,-1,-1,-1,-1,-1,-1,-1],"split_conditions":[1.312E3,3.148E3,1.356E3,1.126E3,4.508E3,4.066E3,2.85E3,1.084E3,-2.3308411E-1,4.33E3,4.833E3,3.173E3,4.049E3,3.261E3,3.093E3,1.5028382E-2,-4.0104676E-2,4.072E3,3.98E3,1.232E3,1.196E3,-7.172242E-2,3.868E3,1.294E3,1.482E3,2.826E3,3.54E3,-2.1168518E-1,1.387E3,5.9117436E-2,2.6916505E-3,4.676E3,1.215E3,-2.2201538E-3,1.282E3,9.873963E-3,-2.6162721E-2,2.529938E-1,4.1775513E-2,1.324E3,1.404E3,2.1094437E-1,1.318E3,1.344E3,1.1563912E-1,-4.0093232E-2,1.6415406E-2,3.058E3,3.288E3,-1.3006897E-1,-3.6078647E-2,-2.1972657E-4,-2.9708864E-3,9.266281E-2,1.8218994E-2,1.9729615E-3,-2.2315979E-2,-1.346489E-1,-2.4916077E-2,1.2808228E-2,-9.307709E-2,1.2528992E-1,-6.1340337E-3,1.3437806E-1,-1.0471591E-1,-5.0128996E-2,4.766148E-3],"split_indices":[0,3,0,3,3,4,3,0,0,7,4,4,5,4,4,0,0,7,5,0,1,0,3,1,1,7,4,0,0,0,0,7,0,0,0,0,0,0,0,0,1,0,0,1,0,0,0,3,3,0,0,0,0,0,0,0,0,0,0,0,0,0,0,0,0,0,0],"split_type":[0,0,0,0,0,0,0,0,0,0,0,0,0,0,0,0,0,0,0,0,0,0,0,0,0,0,0,0,0,0,0,0,0,0,0,0,0,0,0,0,0,0,0,0,0,0,0,0,0,0,0,0,0,0,0,0,0,0,0,0,0,0,0,0,0,0,0],"sum_hessian":[4E2,3E1,3.7E2,4E0,2.6E1,1.9E1,3.51E2,2E0,2E0,1.7E1,9E0,8E0,1.1E1,1.8E1,3.33E2,1E0,1E0,6E0,1.1E1,6E0,3E0,2E0,6E0,6E0,5E0,1.3E1,5E0,2E0,3.31E2,4E0,2E0,9E0,2E0,1E0,5E0,1E0,2E0,5E0,1E0,2E0,4E0,3E0,2E0,6E0,7E0,3E0,2E0,1.4E1,3.17E2,6E0,3E0,1E0,1E0,3E0,2E0,1E0,1E0,3E0,1E0,1E0,1E0,1E0,5E0,2E0,1.2E1,2.5E1,2.92E2],"tree_param":{"num_deleted":"0","num_feature":"8","num_nodes":"67","size_leaf_vector":"1"}},{"base_weights":[-1.3121037E-3,9.674327E-3,-9.3005516E-2,-2.346242E-3,1.9391423E-1,1.14842735E-1,-1.23376146E-1,7.597869E-3,-5.5385333E-1,1.634697E-1,1.098167E-1,-8.728027E-3,7.239685E-2,-1.8588562E-1,-7.859548E-2,-1.213271E-2,1.5242767E-1,-2.2305681E-1,-3.4902956E-2,4.644394E-3,1.5091553E-1,1.4559938E-2,-2.7076723E-2,1.7100017E-1,-9.830699E-2,5.128571E-3,-4.1820017E-1,4.820353E-1,-4.3593187E-2,-6.560974E-2,1.0434396E-1,7.0271306E-2,6.678772E-3,-2.788887E-1,-4.11603E-2,-1.351285E-3,8.966879E-2,-1.5358555E-1,9.196015E-2,2.8565943E-1,-1.4514542E-2,-7.770692E-2,1.9963074E-2,3.1188966E-3,-4.3108523E-2,6.7993164E-2,3.0285644E-3,-9.301758E-3,-9.296134E-2,-1.1408267E-3,-6.143189E-2],"categories":[],"categories_nodes":[],"categories_segments":[],"categories_sizes":[],"default_left":[0,0,0,0,0,0,0,0,0,0,0,0,0,0,0,0,0,0,0,0,0,0,0,0,0,0,0,0,0,0,0,0,0,0,0,0,0,0,0,0,0,0,0,0,0,0,0,0,0,0,0],"id":22,"left_children":[1,3,5,7,9,11,13,15,17,-1,19,21,-1,-1,23,25,27,-1,-1,29,-1,-1,-1,31,33,35,37,39,41,43,45,-1,-1,47,49,-1,-1,-1,-1,-1,-1,-1,-1,-1,-1,-1,-1,-1,-1,-1,-1],"loss_changes":[4.0486047E-1,7.9552096E-1,2.8560555E-1,1.8578839E0,5.89534E-1,9.588174E-2,7.957396E-1,9.534221E-1,4.113897E-1,0E0,7.834549E-1,2.3053873E-2,0E0,0E0,1.9392718E-1,2.0628626E0,2.6054125E0,0E0,0E0,1.1891489E-1,0E0,0E0,0E0,2.3002654E-2,3.3938888E-1,8.021849E-1,9.722705E-1,3.7868042E0,6.341317E-1,6.084348E-2,7.8398265E-2,0E0,0E0,5.183226E-2,1.6424982E-1,0E0,0E0,0E0,0E0,0E0,0E0,0E0,0E0,0E0,0E0,0E0,0E0,0E0,0E0,0E0,0E0],"parents":[2147483647,0,0,1,1,2,2,3,3,4,4,5,5,6,6,7,7,8,8,10,10,11,11,14,14,15,15,16,16,19,19,23,23,24,24,25,25,26,26,27,27,28,28,29,29,30,30,33,33,34,34],"right_children":[2,4,6,8,10,12,14,16,18,-1,20,22,-1,-1,24,26,28,-1,-1,30,-1,-1,-1,32,34,36,38,40,42,44,46,-1,-1,48,50,-1,-1,-1,-1,-1,-1,-1,-1,-1,-1,-1,-1,-1,-1,-1,-1],"split_conditions":[2.172E3,2.522E3,1.744E3,2.024E3,3.92E3,3.024E3,1.765E3,2.33E3,1.739E3,1.634697E-1,4.64E3,2.272E3,7.239685E-2,-1.8588562E-1,3.439E3,2.298E3,4.043E3,-2.2305681E-1,-3.4902956E-2,4.654E3,1.5091553E-1,1.4559938E-2,-2.7076723E-2,1.989E3,4.019E3,4.386E3,5.818E3,4.348E3,1.572E3,1.56E3,4.686E3,7.0271306E-2,6.678772E-3,3.056E3,4.996E3,-1.351285E-3,8.966879E-2,-1.5358555E-1,9.196015E-2,2.8565943E-1,-1.4514542E-2,-7.770692E-2,1.9963074E-2,3.1188966E-3,-4.3108523E-2,6.7993164E-2,3.0285644E-3,-9.301758E-3,-9.296134E-2,-1.1408267E-3,-6.143189E-2],"split_indices":[1,2,0,1,3,2,0,2,0,0,3,1,0,0,4,2,6,0,0,7,0,0,0,0,6,6,5,3,0,0,7,0,0,3,3,0,0,0,0,0,0,0,0,0,0,0,0,0,0,0,0],"split_type":[0,0,0,0,0,0,0,0,0,0,0,0,0,0,0,0,0,0,0,0,0,0,0,0,0,0,0,0,0,0,0,0,0,0,0,0,0,0,0,0,0,0,0,0,0,0,0,0,0,0,0],"sum_hessian":[4E2,3.58E2,4.2E1,3.37E2,2.1E1,5E0,3.7E1,3.32E2,5E0,3E0,1.8E1,3E0,2E0,2E0,3.5E1,2.93E2,3.9E1,3E0,2E0,1.5E1,3E0,2E0,1E0,2E0,3.3E1,2.82E2,1.1E1,1.4E1,2.5E1,9E0,6E0,1E0,1E0,7E0,2.6E1,2.74E2,8E0,1E1,1E0,7E0,7E0,8E0,1.7E1,5E0,4E0,2E0,4E0,1E0,6E0,2.2E1,4E0],"tree_param":{"num_deleted":"0","num_feature":"8","num_nodes":"51","size_leaf_vector":"1"}},{"base_weights":[-6.404125E-4,2.8044E-2,-2.9898178E-2,9.582837E-4,4.5907846E-1,-2.3356833E-1,6.2194825E-3,-1.4050123E-2,2.0869328E-1,4.7168428E-1,2.1494363E-1,1.2747192E-1,-2.9401574E-1,9.6050724E-2,-7.6616265E-2,1.4692413E-2,-2.4472503E-1,1.2171937E-1,7.6039635E-2,-9.259644E-2,2.9816896E-1,3.1256104E-1,-9.1932684E-2,-3.9909822E-1,4.8222132E-2,1.9447033E-1,-7.213863E-2,-3.0754626E-1,-3.160734E-2,-1.4829467E-2,3.0302733E-1,-6.28952E-1,-7.4719235E-2,1.1444092E-2,8.892059E-2,4.591544E-1,-5.809784E-2,1.4878236E-1,2.5836183E-2,-4.7046408E-1,1.6212972E-1,-1.6277058E-1,1.6517334E-1,-2.2131902E-1,2.987373E-1,1.5152543E-2,-1.5872498E-1,-2.45558E-1,2.4663953E-2,5.570632E-4,-1.467279E-1,-3.621277E-2,1.4042608E-1,-2.1306886E-1,-3.3384707E-2,-7.117402E-2,6.258393E-2,2.8619386E-2,-9.732056E-3,2.5418092E-2,1.77594E-1,-4.6279907E-2,3.4561157E-2,-5.226746E-2,-1.8121949E-1,6.46637E-2,8.294678E-3,-6.0607914E-2,-1.2638856E-2,6.806488E-2,-1.2249757E-2,-1.1159101E-1,1.0156861E-2,2.029215E-1,1.9160971E-2,5.6738894E-2,-2.4702962E-2,-1.8597108E-1,-3.880859E-2,1.4606324E-1,-1.1168047E-3],"categories":[],"categories_nodes":[],"categories_segments":[],"categories_sizes":[],"default_left":[0,0,0,0,0,0,0,0,0,0,0,0,0,0,0,0,0,0,0,0,0,0,0,0,0,0,0,0,0,0,0,0,0,0,0,0,0,0,0,0,0,0,0,0,0,0,0,0,0,0,0,0,0,0,0,0,0,0,0,0,0,0,0,0,0,0,0,0,0,0,0,0,0,0,0,0,0,0,0,0,0],"id":23,"left_children":[1,3,5,7,9,11,13,15,17,-1,19,21,23,25,27,29,31,-1,33,-1,35,37,-1,39,41,43,45,-1,47,49,51,53,55,57,-1,59,61,-1,-1,63,65,67,69,71,73,75,-1,77,79,-1,-1,-1,-1,-1,-1,-1,-1,-1,-1,-1,-1,-1,-1,-1,-1,-1,-1,-1,-1,-1,-1,-1,-1,-1,-1,-1,-1,-1,-1,-1,-1],"loss_changes":[3.3737445E-1,2.3695602E0,1.4653144E0,6.0154426E-1,2.923306E0,6.921973E-1,1.2723695E0,1.1970284E0,3.0893975E-1,0E0,5.713744E-1,4.9734583E-1,9.5428824E-1,1.3713857E0,3.7672453E0,1.3749561E0,1.2594216E0,0E0,1.2471776E-1,0E0,6.002135E-1,1.2338799E-1,0E0,8.773265E-1,1.9961634E-1,2.3204772E0,1.2445213E0,0E0,1.0414346E0,1.1642258E0,1.1056291E0,1.7341328E-1,7.40232E-1,3.256876E-2,0E0,2.9797804E-1,8.443675E-2,0E0,0E0,6.0715747E-1,1.5590645E-2,5.696304E-3,7.282689E-2,4.3545997E-1,3.6822743E0,4.735483E-1,0E0,7.0276237E-1,9.071398E-1,0E0,0E0,0E0,0E0,0E0,0E0,0E0,0E0,0E0,0E0,0E0,0E0,0E0,0E0,0E0,0E0,0E0,0E0,0E0,0E0,0E0,0E0,0E0,0E0,0E0,0E0,0E0,0E0,0E0,0E0,0E0,0E0],"parents":[2147483647,0,0,1,1,2,2,3,3,4,4,5,5,6,6,7,7,8,8,10,10,11,11,12,12,13,13,14,14,15,15,16,16,18,18,20,20,21,21,23,23,24,24,25,25,26,26,28,28,29,29,30,30,31,31,32,32,33,33,35,35,36,36,39,39,40,40,41,41,42,42,43,43,44,44,45,45,47,47,48,48],"right_children":[2,4,6,8,10,12,14,16,18,-1,20,22,24,26,28,30,32,-1,34,-1,36,38,-1,40,42,44,46,-1,48,50,52,54,56,58,-1,60,62,-1,-1,64,66,68,70,72,74,76,-1,78,80,-1,-1,-1,-1,-1,-1,-1,-1,-1,-1,-1,-1,-1,-1,-1,-1,-1,-1,-1,-1,-1,-1,-1,-1,-1,-1,-1,-1,-1,-1,-1,-1],"split_conditions":[1.665E3,2.108E3,1.718E3,3.907E3,2.11E3,3.148E3,4.245E3,1.604E3,4.032E3,4.7168428E-1,1.411E3,1.682E3,4.511E3,1.733E3,1.758E3,1.558E3,1.618E3,1.2171937E-1,5.393E3,-9.259644E-2,1.63E3,1.58E3,-9.1932684E-2,2.19E3,2.12E3,3.552E3,4.156E3,-3.0754626E-1,4.26E3,1.544E3,1.94E3,4.416E3,1.496E3,1.484E3,8.892059E-2,1.642E3,1.661E3,1.4878236E-1,2.5836183E-2,4.732E3,1.561E3,1.468E3,1.567E3,3.667E3,3.836E3,1.989E3,-1.5872498E-1,4.074E3,4.038E3,5.570632E-4,-1.467279E-1,-3.621277E-2,1.4042608E-1,-2.1306886E-1,-3.3384707E-2,-7.117402E-2,6.258393E-2,2.8619386E-2,-9.732056E-3,2.5418092E-2,1.77594E-1,-4.6279907E-2,3.4561157E-2,-5.226746E-2,-1.8121949E-1,6.46637E-2,8.294678E-3,-6.0607914E-2,-1.2638856E-2,6.806488E-2,-1.2249757E-2,-1.1159101E-1,1.0156861E-2,2.029215E-1,1.9160971E-2,5.6738894E-2,-2.4702962E-2,-1.8597108E-1,-3.880859E-2,1.4606324E-1,-1.1168047E-3],"split_indices":[1,2,1,6,2,3,7,1,6,0,0,1,4,0,1,1,1,0,5,0,0,0,0,2,2,6,7,0,4,1,2,3,0,1,0,1,1,0,0,5,0,0,0,4,6,0,0,3,3,0,0,0,0,0,0,0,0,0,0,0,0,0,0,0,0,0,0,0,0,0,0,0,0,0,0,0,0,0,0,0,0],"split_type":[0,0,0,0,0,0,0,0,0,0,0,0,0,0,0,0,0,0,0,0,0,0,0,0,0,0,0,0,0,0,0,0,0,0,0,0,0,0,0,0,0,0,0,0,0,0,0,0,0,0,0,0,0,0,0,0,0,0,0,0,0,0,0,0,0,0,0,0,0,0,0,0,0,0,0,0,0,0,0,0,0],"sum_hessian":[4E2,2.02E2,1.98E2,1.91E2,1.1E1,2.9E1,1.69E2,1.79E2,1.2E1,1E0,1E1,4E0,2.5E1,8.1E1,8.8E1,1.6E2,1.9E1,4E0,8E0,1E0,9E0,3E0,1E0,1.9E1,6E0,5.1E1,3E1,3E0,8.5E1,1.46E2,1.4E1,5E0,1.4E1,7E0,1E0,6E0,3E0,1E0,2E0,1.7E1,2E0,2E0,4E0,1E1,4.1E1,2.6E1,4E0,1.7E1,6.8E1,1.42E2,4E0,4E0,1E1,4E0,1E0,9E0,5E0,2E0,5E0,2E0,4E0,2E0,1E0,6E0,1.1E1,1E0,1E0,1E0,1E0,3E0,1E0,6E0,4E0,1.5E1,2.6E1,9E0,1.7E1,3E0,1.4E1,3E0,6.5E1],"tree_param":{"num_deleted":"0","num_feature":"8","num_nodes":"81","size_leaf_vector":"1"}},{"base_weights":[-4.0783966E-4,3.7076794E-2,-2.2247676E-2,9.69112E-3,1.0205383E0,-3.2449952E-1,-3.2642365E-3,-1.2301297E-2,2.7871704E-1,4.2497253E-1,-2.5135804E-2,5.3009037E-2,-4.1519868E-1,7.100067E-1,-1.5288792E-2,1.6969034E-2,-2.4759522E-1,1.682724E-1,-4.9926758E-2,-5.641235E-1,6.0913086E-2,6.1976627E-2,2.4268495E-1,-1.3183986E-1,7.6297014E-3,-5.338894E-2,1.4130887E-1,-1.3114472E-1,-1.091034E-1,-8.864136E-2,5.8276366E-2,-2.0358239E-1,-7.079061E-2,-9.503175E-3,1.0233561E-1,-5.2606918E-2,-5.5885315E-1,2.3204957E-1,-1.4488143E-4,-8.807735E-3,-1.9330445E-1,3.6723635E-1,1.8180195E-2,1.4500123E-2,-6.663514E-2,3.841095E-2,2.648163E-3,-6.463623E-3,-2.5392152E-2,3.755951E-2,8.491516E-3,-5.4342274E-2,1.7520303E-2,-2.367859E-1,-7.38945E-2,2.8458368E-2,-1.32462E-2],"categories":[],"categories_nodes":[],"categories_segments":[],"categories_sizes":[],"default_left":[0,0,0,0,0,0,0,0,0,0,0,0,0,0,0,0,0,0,0,0,0,0,0,0,0,0,0,0,0,0,0,0,0,0,0,0,0,0,0,0,0,0,0,0,0,0,0,0,0,0,0,0,0,0,0,0,0],"id":24,"left_children":[1,3,5,7,9,11,13,15,17,-1,-1,-1,19,21,23,25,27,-1,29,31,33,-1,-1,35,37,39,41,-1,43,-1,45,-1,47,-1,49,51,53,-1,55,-1,-1,-1,-1,-1,-1,-1,-1,-1,-1,-1,-1,-1,-1,-1,-1,-1,-1],"loss_changes":[3.2910684E-1,3.9761581E0,1.4563367E0,8.613255E-1,1.8681011E0,7.552357E-1,2.069279E0,9.339641E-1,1.0481478E0,0E0,0E0,0E0,9.5612574E-1,3.2118797E-2,6.3407433E-1,1.0660884E0,3.4608036E-1,0E0,1.7663103E-1,5.1675034E-1,1.858301E-2,0E0,0E0,1.2901075E0,1.1850199E0,1.0887328E0,3.771059E0,0E0,1.886613E-1,0E0,1.6117696E-2,0E0,2.2250786E-4,0E0,1.5338808E-3,4.9570072E-1,2.3770177E-1,0E0,8.320532E-1,0E0,0E0,0E0,0E0,0E0,0E0,0E0,0E0,0E0,0E0,0E0,0E0,0E0,0E0,0E0,0E0,0E0,0E0],"parents":[2147483647,0,0,1,1,2,2,3,3,4,4,5,5,6,6,7,7,8,8,12,12,13,13,14,14,15,15,16,16,18,18,19,19,20,20,23,23,24,24,25,25,26,26,28,28,30,30,32,32,34,34,35,35,36,36,38,38],"right_children":[2,4,6,8,10,12,14,16,18,-1,-1,-1,20,22,24,26,28,-1,30,32,34,-1,-1,36,38,40,42,-1,44,-1,46,-1,48,-1,50,52,54,-1,56,-1,-1,-1,-1,-1,-1,-1,-1,-1,-1,-1,-1,-1,-1,-1,-1,-1,-1],"split_conditions":[4.017E3,4.001E3,4.082E3,5.292E3,1.474E3,1.475E3,4.089E3,4.911E3,3.88E3,4.2497253E-1,-2.5135804E-2,5.3009037E-2,2.494E3,1.535E3,4.174E3,2.002E3,3.96E3,1.682724E-1,5.499E3,1.699E3,3.754E3,6.1976627E-2,2.4268495E-1,4.163E3,4.181E3,1.987E3,1.439E3,-1.3114472E-1,1.714E3,-8.864136E-2,1.483E3,-2.0358239E-1,1.72E3,-9.503175E-3,1.557E3,4.367E3,1.47E3,2.3204957E-1,1.501E3,-8.807735E-3,-1.9330445E-1,3.6723635E-1,1.8180195E-2,1.4500123E-2,-6.663514E-2,3.841095E-2,2.648163E-3,-6.463623E-3,-2.5392152E-2,3.755951E-2,8.491516E-3,-5.4342274E-2,1.7520303E-2,-2.367859E-1,-7.38945E-2,2.8458368E-2,-1.32462E-2],"split_indices":[4,4,4,5,0,0,4,5,3,0,0,0,2,0,7,2,6,0,5,0,3,0,0,7,7,2,0,0,1,0,0,0,1,0,0,5,1,0,1,0,0,0,0,0,0,0,0,0,0,0,0,0,0,0,0,0,0],"split_type":[0,0,0,0,0,0,0,0,0,0,0,0,0,0,0,0,0,0,0,0,0,0,0,0,0,0,0,0,0,0,0,0,0,0,0,0,0,0,0,0,0,0,0,0,0,0,0,0,0,0,0,0,0,0,0,0,0],"sum_hessian":[4E2,1.47E2,2.53E2,1.44E2,3E0,1.4E1,2.39E2,1.34E2,1E1,2E0,1E0,2E0,1.2E1,3E0,2.36E2,1.2E2,1.4E1,5E0,5E0,9E0,3E0,1E0,2E0,3.8E1,1.98E2,7.7E1,4.3E1,5E0,9E0,1E0,4E0,7E0,2E0,1E0,2E0,3.3E1,5E0,1E0,1.97E2,7.5E1,2E0,2E0,4.1E1,4E0,5E0,1E0,3E0,1E0,1E0,1E0,1E0,1.5E1,1.8E1,2E0,3E0,6.2E1,1.35E2],"tree_param":{"num_deleted":"0","num_feature":"8","num_nodes":"57","size_leaf_vector":"1"}},{"base_weights":[1.1576131E-3,-1.03143506E-1,9.869681E-3,-3.9365846E-1,-4.5524314E-2,1.6734505E-1,2.7644124E-3,-4.095459E-2,-1.8454285E-1,1.2980652E-1,-1.1338043E-1,3.5347494E-1,5.0606467E-2,-4.3164825E-1,7.6791043E-3,1.421814E-2,-3.2647707E-2,1.7567138E-1,4.0023804E-2,-2.392451E-1,6.703695E-2,1.3922425E-1,5.4645542E-2,-2.0824432E-2,5.4245E-2,-2.0626832E-2,-1.5890808E-1,7.857972E-2,4.014504E-3,1.3627625E-2,5.906296E-2,-2.0874024E-3,1.7401123E-2,-2.7974853E-1,-7.345581E-3,1.399587E-1,-5.910492E-2,3.3737183E-2,-1.2300619E-1,-9.61687E-2,1.8033603E-2,-1.0035488E-1,-3.419037E-2,-6.037903E-3,5.2800298E-2,4.238892E-3,-2.6467897E-2,1.6587526E-2,-1.1105347E-2,-5.822754E-3,-4.9530033E-2,-6.286424E-3,-8.0438234E-2,7.126414E-2,1.3039319E-3],"categories":[],"categories_nodes":[],"categories_segments":[],"categories_sizes":[],"default_left":[0,0,0,0,0,0,0,0,0,0,0,0,0,0,